
\data\
ngram 1=2821
ngram 2=6344
ngram 3=456

\1-grams:
-3.720428	1	-0.05613437
-3.720428	8.5	-0.05613437
-0.9626324	</s>
-99	<s>	-0.2933568
-2.932999	A	-0.102429
-3.421743	B	-0.05613437
-3.577401	Because	-0.1682375
-3.069788	C	-0.05613438
-3.577401	Call	-0.1682375
-2.932999	D	-0.1246909
-3.158687	E	-0.05613438
-3.577401	F	-0.05613437
-3.421743	G	-0.1275688
-3.720428	Go	-0.05613438
-3.421743	H	-0.05613438
-3.158687	I	-0.05613438
-3.720428	It	-0.05613437
-3.421743	J	-0.05613437
-3.720428	K	-0.05613438
-3.421743	L	-0.05613437
-3.577401	Let	-0.1682375
-3.720428	Loft	-0.05613437
-2.99603	M	-0.168042
-3.720428	Maps	-0.05613438
-3.720428	Maybe	-0.05613438
-3.720428	Me	-0.05613437
-3.158687	N	-0.05613437
-3.421743	O	-0.05613438
-3.720428	Of	-0.05613437
-2.829131	P	-0.1855127
-3.577401	Q	-0.1682375
-3.720428	R	-0.05613438
-3.158687	S	-0.2370728
-3.421743	T	-0.1085788
-3.720428	T恤	-0.05613438
-3.421743	U	-0.05613437
-3.421743	V	-0.1275688
-3.720428	W	-0.05613437
-3.577401	X	-0.05613438
-3.270595	Y	-0.09038454
-3.720428	You	-0.05613438
-3.421743	Z	-0.05613437
-3.421743	apple	-0.1275688
-3.720428	baby	-0.05613438
-3.577401	hold	-0.1682375
-3.720428	logo	-0.05613438
-3.720428	n	-0.05613438
-3.720428	pay	-0.05613438
-3.720428	watch	-0.05613438
-2.708862	一	-0.1669449
-3.720428	一下	-0.05613438
-2.785235	一个	-0.05613438
-3.720428	一个月	-0.05613438
-3.577401	一九九零年	-0.1682375
-3.577401	一事	-0.05613438
-3.720428	一二年	-0.05613438
-3.158687	一些	-0.05613437
-3.720428	一件	-0.05613437
-3.720428	一份	-0.05613437
-3.720428	一众	-0.05613438
-3.720428	一位	-0.05613438
-3.720428	一六底	-0.05613437
-3.720428	一切都是	-0.05613438
-3.720428	一千	-0.05613438
-3.720428	一千亿	-0.05613437
-3.720428	一只	-0.05613437
-3.720428	一名	-0.05613438
-3.720428	一向	-0.05613437
-3.421743	一周	-0.05613438
-3.720428	一圈	-0.05613437
-3.720428	一场	-0.05613437
-3.577401	一天	-0.05613438
-3.720428	一季度	-0.05613438
-3.720428	一定	-0.05613438
-3.577401	一家	-0.05613438
-3.720428	一对	-0.05613437
-3.720428	一年	-0.05613438
-3.720428	一度	-0.05613438
-3.577401	一张	-0.05613438
-3.720428	一日	-0.05613438
-3.720428	一枪	-0.05613438
-3.720428	一样	-0.05613438
-3.720428	一棍子打死	-0.05613438
-3.720428	一概而论	-0.05613438
-3.720428	一步	-0.05613438
-3.720428	一死一伤	-0.05613438
-3.720428	一段	-0.05613437
-3.270595	一点	-0.284458
-3.720428	一生	-0.05613438
-3.720428	一男一女	-0.05613438
-3.577401	一百一十	-0.05613438
-3.720428	一百四十四	-0.05613437
-3.720428	一直	-0.05613438
-3.720428	一票	-0.05613438
-3.069788	一种	-0.05613438
-3.720428	一米	-0.05613438
-3.720428	一类	-0.05613437
-3.720428	一线	-0.05613438
-3.577401	一致	-0.05613437
-3.720428	一致性	-0.05613438
-3.720428	一般	-0.05613438
-3.720428	一般而言	-0.05613438
-3.577401	一起	-0.05613438
-3.720428	一身	-0.05613438
-3.720428	一车	-0.05613438
-3.421743	一辆	-0.1275688
-3.577401	一辈子	-0.1682375
-3.720428	一首	-0.05613437
-3.720428	丁香	-0.05613437
-2.785235	七	-0.4906505
-3.720428	七十万	-0.05613438
-3.720428	七归	-0.05613438
-3.720428	七是	-0.05613438
-3.720428	七月	-0.05613438
-3.720428	七比	-0.05613438
-3.270595	七车	-0.1682375
-3.720428	万余	-0.05613437
-3.577401	万余元	-0.05613438
-3.720428	万斤	-0.05613438
-3.577401	万科	-0.05613438
-3.577401	万达	-0.05613438
-3.421743	丈夫	-0.05613438
-2.514511	三	-0.648294
-3.270595	三个	-0.05613437
-3.720428	三井	-0.05613437
-3.720428	三位	-0.05613438
-3.720428	三分之一	-0.05613438
-3.720428	三分之二	-0.05613438
-3.720428	三十	-0.05613437
-3.720428	三十二度	-0.05613438
-3.720428	三十五岁	-0.05613438
-3.720428	三十四	-0.05613437
-3.577401	三十年	-0.05613438
-3.720428	三十度	-0.05613438
-3.720428	三十日	-0.05613438
-3.720428	三千	-0.05613438
-3.720428	三叶	-0.05613437
-3.720428	三号	-0.05613438
-3.720428	三天	-0.05613438
-3.577401	三年	-0.05613438
-3.720428	三成	-0.05613438
-3.720428	三明	-0.05613437
-2.99603	三星	-0.1488637
-3.720428	三星公司	-0.05613438
-3.720428	三星电子	-0.05613438
-3.720428	三是	-0.05613437
-3.577401	三月	-0.05613438
-3.720428	三月份	-0.05613438
-3.720428	三栋	-0.05613438
-3.720428	三次	-0.05613437
-3.720428	三点	-0.05613437
-3.421743	三百	-0.05613438
-3.720428	三百多斤	-0.05613438
-3.720428	三百斤	-0.05613438
-3.720428	三维	-0.05613438
-3.421743	三里屯	-0.05613438
-3.720428	三零	-0.05613438
-2.675185	上	-0.06866381
-3.720428	上一年	-0.05613437
-3.720428	上去	-0.05613438
-3.577401	上周	-0.05613438
-3.720428	上坎镇	-0.05613438
-3.577401	上市	-0.1682375
-3.720428	上映	-0.05613438
-3.720428	上来	-0.05613438
-3.158687	上海	-0.05613438
-3.720428	上海市	-0.05613438
-3.421743	上涨	-0.05613437
-3.720428	上空	-0.05613437
-3.720428	上述	-0.05613438
-3.421743	下	-0.1275688
-3.720428	下一代	-0.05613437
-3.720428	下半年	-0.05613438
-3.720428	下周	-0.05613438
-3.720428	下滑	-0.05613438
-3.720428	下课	-0.05613438
-3.577401	下调	-0.05613438
-3.720428	下起	-0.05613438
-3.270595	下跌	-0.1085788
-3.577401	下降	-0.1682375
-2.614779	不	-0.05613438
-3.421743	不仅	-0.1275688
-3.421743	不会	-0.05613438
-3.720428	不住	-0.05613438
-3.577401	不再	-0.1682375
-3.720428	不到	-0.05613437
-3.720428	不动产	-0.05613438
-3.720428	不及	-0.05613438
-3.720428	不可	-0.05613438
-3.577401	不同	-0.1682375
-3.720428	不在意	-0.05613438
-3.720428	不够	-0.05613438
-3.720428	不好	-0.05613438
-3.577401	不少	-0.05613437
-3.720428	不幸身亡	-0.05613438
-3.577401	不得不	-0.05613438
-3.720428	不必	-0.05613438
-3.421743	不断	-0.05613437
-3.720428	不断创新	-0.05613438
-3.720428	不是	-0.05613437
-3.720428	不满	-0.05613437
-3.720428	不用	-0.05613438
-3.421743	不能	-0.05613437
-3.720428	不过	-0.05613438
-3.720428	不远处	-0.05613437
-2.537492	与	-0.06612883
-3.720428	与其	-0.05613437
-3.577401	丑闻	-0.05613437
-3.720428	专业	-0.05613438
-3.720428	专业人士	-0.05613438
-3.421743	专家	-0.05613437
-3.720428	专心	-0.05613437
-3.577401	专车	-0.05613438
-3.270595	世界	-0.05613438
-3.720428	世界冠军	-0.05613438
-3.720428	世界杯	-0.05613437
-3.720428	世纪	-0.05613438
-3.720428	世锦赛	-0.05613437
-3.577401	业主	-0.05613438
-3.720428	业内人士	-0.05613437
-3.158687	业务	-0.1085789
-3.720428	业绩	-0.05613438
-3.720428	东三环	-0.05613438
-3.069788	东京	-0.4305861
-3.720428	东便门	-0.05613438
-3.720428	东北	-0.05613437
-3.270595	东南	-0.1682375
-3.577401	东四环	-0.05613437
-3.577401	东方	-0.05613438
-3.720428	东西	-0.05613438
-3.720428	东部	-0.05613437
-3.577401	两	-0.05613438
-3.421743	两个	-0.05613437
-3.577401	两人	-0.05613438
-3.577401	两千元	-0.05613438
-3.577401	两名	-0.05613438
-3.421743	两块钱	-0.05613437
-3.720428	两大类	-0.05613438
-3.720428	两家	-0.05613438
-3.720428	两局	-0.05613437
-3.720428	两年	-0.05613438
-3.720428	两度	-0.05613438
-3.577401	两张	-0.1682375
-3.720428	两点	-0.05613438
-3.720428	两者	-0.05613437
-3.720428	两辆	-0.05613437
-3.720428	严厉	-0.05613438
-3.720428	严格	-0.05613438
-3.720428	严重	-0.05613438
-3.577401	个	-0.05613438
-3.720428	个人	-0.05613437
-3.720428	个人信息	-0.05613437
-2.537492	中	-0.3387613
-3.720428	中以	-0.05613438
-3.720428	中伤	-0.05613438
-3.720428	中刀	-0.05613437
-3.577401	中原	-0.05613437
-2.932999	中国	-0.09038453
-3.720428	中国证监会	-0.05613438
-3.720428	中小企业	-0.05613438
-3.720428	中年	-0.05613438
-3.720428	中心	-0.05613438
-3.720428	中指	-0.05613437
-3.720428	中新网	-0.05613437
-3.720428	中止	-0.05613438
-3.720428	中法	-0.05613437
-3.720428	中老年	-0.05613437
-3.577401	中行	-0.05613438
-3.720428	中长期	-0.05613438
-3.720428	丰富	-0.05613438
-3.720428	临时	-0.05613437
-3.720428	临界值	-0.05613438
-3.577401	临界点	-0.1682375
-2.514511	为	-0.05613437
-3.720428	为主	-0.05613438
-3.421743	为了	-0.05613437
-3.720428	为何	-0.05613437
-3.720428	为例	-0.05613438
-3.720428	为此	-0.05613438
-3.720428	为省	-0.05613438
-3.720428	为防	-0.05613438
-3.577401	主人	-0.05613438
-3.720428	主力	-0.05613437
-3.720428	主办方	-0.05613437
-3.720428	主持	-0.05613438
-3.720428	主流	-0.05613438
-3.720428	主管	-0.05613437
-3.270595	主要	-0.05613438
-3.720428	主路	-0.05613438
-3.720428	主题	-0.05613438
-3.720428	主题曲	-0.05613438
-3.577401	丽江	-0.05613437
-3.720428	丽江市	-0.05613437
-3.720428	举	-0.05613437
-3.577401	举办	-0.05613438
-3.720428	举行	-0.05613438
-3.577401	乃至	-0.05613438
-3.720428	久	-0.05613438
-3.720428	之一	-0.05613438
-3.720428	之中	-0.05613438
-3.577401	之前	-0.05613438
-3.577401	之后	-0.05613437
-3.577401	之外	-0.1682375
-3.720428	之日起	-0.05613438
-3.069788	之间	-0.1275688
-3.720428	乐园	-0.05613438
-3.577401	乒乓	-0.05613438
-2.675185	乒乓球	-0.1085788
-3.720428	乒乓球拍	-0.05613438
-3.720428	乘势	-0.05613437
-3.720428	乘坐	-0.05613438
-3.720428	乘客	-0.05613437
-2.643932	九	-0.6454095
-3.720428	九井	-0.05613437
-3.577401	九月	-0.05613437
-3.720428	九比二	-0.05613437
-3.720428	九零	-0.05613438
-2.414933	也	-0.1818197
-3.720428	书城	-0.05613438
-3.421743	买	-0.1275688
-3.577401	买家	-0.05613438
-3.577401	买房	-0.05613438
-2.108616	了	-0.1628207
-3.720428	了解	-0.05613437
-3.421743	予以	-0.1275688
-3.720428	争夺	-0.05613438
-3.577401	事	-0.1682375
-3.720428	事件	-0.05613438
-3.720428	事件簿	-0.05613438
-3.720428	事前	-0.05613438
-3.421743	事发	-0.1275688
-3.577401	事后	-0.05613438
-3.720428	事实上	-0.05613438
-3.720428	事情	-0.05613438
-3.270595	事故	-0.05613438
-3.577401	事项	-0.05613437
-2.587459	二	-0.4636704
-3.720428	二三	-0.05613437
-3.720428	二十个	-0.05613438
-3.720428	二十九	-0.05613437
-3.720428	二十五	-0.05613438
-3.720428	二十位	-0.05613438
-3.577401	二十八日	-0.05613437
-3.720428	二十多个	-0.05613437
-3.720428	二十年	-0.05613438
-3.720428	二店	-0.05613438
-3.720428	二成	-0.05613437
-3.577401	二手房	-0.05613438
-3.720428	二是	-0.05613437
-3.720428	二级	-0.05613437
-3.720428	二线	-0.05613438
-3.720428	二郎	-0.05613438
-3.158687	二零一	-0.09757105
-3.720428	二零零三年	-0.05613438
-3.720428	二零零六年	-0.05613438
-2.99603	于	-0.05613438
-3.720428	于二零	-0.05613437
-3.720428	于二零一	-0.05613438
-3.720428	于是	-0.05613437
-3.720428	亏空	-0.05613438
-3.577401	互动	-0.05613438
-2.708862	五	-0.5861265
-3.720428	五万	-0.05613438
-3.720428	五万元	-0.05613438
-3.720428	五倍	-0.05613437
-3.720428	五千元	-0.05613438
-3.421743	五年	-0.05613437
-3.720428	五日	-0.05613438
-3.720428	五是	-0.05613437
-3.720428	五点	-0.05613438
-3.720428	亚洲	-0.05613438
-3.720428	亡妻	-0.05613438
-3.577401	交易	-0.05613437
-3.720428	交易额	-0.05613438
-3.720428	交汇	-0.05613438
-3.720428	交流	-0.05613438
-3.577401	交通	-0.05613438
-3.720428	交通委	-0.05613438
-3.720428	亦	-0.05613437
-3.720428	产业	-0.05613438
-3.421743	产品	-0.09757105
-3.720428	产能	-0.05613437
-3.720428	享受	-0.05613438
-3.720428	京报	-0.05613438
-3.720428	亭	-0.05613438
-3.720428	亲子	-0.05613438
-3.720428	亲爱	-0.05613438
-2.877967	人	-0.07048358
-3.720428	人们	-0.05613438
-3.720428	人会	-0.05613437
-2.932999	人口	-0.07866512
-3.720428	人口基数	-0.05613438
-3.720428	人口数量	-0.05613438
-3.421743	人员	-0.05613438
-3.577401	人员伤亡	-0.1682375
-3.577401	人士	-0.05613438
-3.720428	人家	-0.05613437
-3.720428	人才	-0.05613437
-3.720428	人据	-0.05613437
-3.577401	人数	-0.05613438
-3.720428	人民网	-0.05613437
-3.720428	人气	-0.05613438
-3.720428	人父	-0.05613438
-3.720428	人群	-0.05613438
-3.720428	亿	-0.05613438
-3.720428	亿日元	-0.05613438
-3.720428	亿美元	-0.05613438
-3.421743	什么	-0.05613437
-3.720428	仅	-0.05613438
-3.720428	今后	-0.05613438
-3.720428	今天上午	-0.05613438
-3.720428	今天下午	-0.05613437
-3.421743	今年	-0.05613437
-3.720428	今年初	-0.05613438
-3.720428	今生	-0.05613438
-3.270595	仍	-0.05613437
-3.720428	仍会	-0.05613437
-2.932999	从	-0.05613438
-3.720428	从未见过	-0.05613438
-3.720428	从来	-0.05613438
-3.720428	从软	-0.05613437
-2.99603	他	-0.05613437
-3.577401	他人	-0.05613437
-2.932999	他们	-0.102429
-3.720428	付	-0.05613437
-3.720428	仙桃市	-0.05613437
-3.720428	代行	-0.05613437
-3.577401	代表	-0.05613438
-2.932999	以	-0.05613438
-3.577401	以上	-0.05613438
-3.720428	以下	-0.05613438
-3.720428	以二零一	-0.05613438
-3.720428	以供	-0.05613437
-3.577401	以及	-0.05613437
-3.720428	以四比	-0.05613438
-3.720428	以四零	-0.05613437
-3.720428	以外	-0.05613438
-3.577401	以往	-0.05613438
-3.720428	以来	-0.05613438
-3.720428	以点带面	-0.05613438
-3.270595	们	-0.05613438
-3.720428	价格	-0.05613438
-3.720428	价齐涨	-0.05613437
-3.720428	任	-0.05613438
-3.577401	任何	-0.05613438
-3.577401	任务	-0.05613438
-3.720428	任职	-0.05613438
-3.577401	份额	-0.1682375
-3.720428	企业	-0.05613438
-3.720428	优势	-0.05613438
-3.720428	优惠	-0.05613438
-3.577401	优衣库	-0.1682375
-2.708862	会	-0.06791668
-3.720428	会上	-0.05613437
-3.158687	会徽	-0.1166159
-3.720428	传感器	-0.05613437
-3.421743	传统	-0.05613437
-3.720428	传言	-0.05613438
-3.720428	传输数据	-0.05613438
-3.720428	传达	-0.05613437
-3.720428	伤	-0.05613438
-3.720428	伤人	-0.05613438
-3.577401	伤者	-0.05613438
-3.577401	伪造	-0.05613437
-3.577401	伴随	-0.05613437
-3.577401	似乎	-0.05613438
-3.577401	但	-0.05613437
-3.720428	但是	-0.05613438
-3.421743	位于	-0.05613438
-3.577401	位置	-0.1682375
-3.577401	低价	-0.1682375
-3.577401	低收入	-0.05613438
-3.577401	低迷	-0.05613438
-3.577401	住	-0.05613438
-3.421743	住宅	-0.05613437
-3.421743	住房	-0.05613437
-2.99603	佐野	-0.1085788
-3.577401	体制改革	-0.05613437
-3.720428	体系	-0.05613438
-3.720428	体育	-0.05613437
-3.577401	体验	-0.05613438
-3.720428	何时	-0.05613437
-3.720428	何曾	-0.05613437
-3.577401	何种	-0.05613438
-3.270595	作为	-0.05613438
-3.720428	作出	-0.05613437
-3.720428	作品	-0.05613437
-3.720428	作用	-0.05613438
-2.877967	你	-0.1788786
-3.720428	使得	-0.05613438
-3.270595	使用	-0.05613438
-3.720428	使用费	-0.05613438
-3.720428	例案	-0.05613437
-3.720428	供应	-0.05613438
-3.577401	依旧	-0.05613438
-3.720428	依然	-0.05613438
-3.720428	依照	-0.05613437
-3.720428	依赖	-0.05613438
-3.720428	依靠	-0.05613438
-3.720428	侠	-0.05613438
-3.720428	侠侣	-0.05613438
-3.577401	促	-0.05613438
-3.720428	促进	-0.05613438
-3.720428	俏皮	-0.05613438
-3.720428	保利	-0.05613438
-3.577401	保安	-0.05613437
-3.720428	保持稳定	-0.05613438
-3.577401	保证	-0.05613437
-3.270595	保障	-0.05613437
-3.720428	信号	-0.05613438
-3.720428	信心	-0.05613437
-3.270595	信息	-0.05613438
-3.720428	信托	-0.05613437
-3.720428	信贷	-0.05613437
-3.577401	信贷政策	-0.05613437
-3.577401	信赖	-0.05613438
-3.421743	修改	-0.1275688
-3.421743	修订	-0.05613437
-3.577401	倍数	-0.05613437
-3.720428	倒地	-0.05613438
-3.720428	候若洪	-0.05613437
-3.720428	借鉴	-0.05613437
-3.720428	假期	-0.05613438
-3.720428	假警	-0.05613438
-3.720428	偏差	-0.05613437
-3.158687	做	-0.05613438
-3.720428	做出	-0.05613437
-3.720428	做好	-0.05613437
-3.720428	停下	-0.05613437
-3.720428	停不下来	-0.05613438
-3.720428	停业	-0.05613438
-3.720428	停业整顿	-0.05613437
-3.720428	停止使用	-0.05613438
-3.720428	停用	-0.05613438
-3.720428	停留	-0.05613438
-3.720428	停车	-0.05613438
-3.577401	停车费	-0.05613437
-3.577401	健康	-0.05613438
-3.577401	健身	-0.05613438
-3.577401	健身房	-0.05613438
-3.720428	偶	-0.05613438
-3.720428	偶尔	-0.05613437
-3.720428	傍晚	-0.05613437
-3.720428	储蓄	-0.05613437
-3.720428	儿争	-0.05613437
-3.720428	儿子	-0.05613437
-3.720428	元素	-0.05613438
-3.577401	兄弟	-0.1682375
-3.720428	充分	-0.05613438
-3.720428	充分发挥	-0.05613437
-3.720428	先	-0.05613438
-3.577401	先后	-0.05613438
-3.720428	先机	-0.05613438
-3.720428	光晕	-0.05613438
-3.577401	光韵	-0.1682375
-3.720428	免征	-0.05613437
-3.720428	全	-0.05613437
-3.720428	全体	-0.05613437
-3.720428	全国	-0.05613438
-3.577401	全民	-0.05613437
-3.720428	全职	-0.05613438
-3.720428	全自动	-0.05613438
-3.720428	全部	-0.05613438
-3.720428	全面	-0.05613438
-2.745372	八	-0.60678
-3.720428	八个	-0.05613438
-3.720428	八位	-0.05613438
-3.577401	八月	-0.05613438
-3.720428	公交	-0.05613438
-3.270595	公募	-0.284458
-2.708862	公司	-0.1411429
-3.421743	公园	-0.05613437
-3.720428	公安机关	-0.05613438
-3.720428	公布	-0.05613437
-3.720428	公布于众	-0.05613438
-2.99603	公开	-0.05613438
-3.577401	公款	-0.05613438
-3.577401	公积金	-0.05613438
-2.785235	六	-0.5035317
-3.720428	六十四岁	-0.05613437
-3.720428	六号	-0.05613438
-3.270595	六年	-0.05613437
-3.577401	六本木	-0.05613438
-3.577401	共	-0.05613438
-3.720428	共享	-0.05613438
-3.720428	共有	-0.05613437
-3.720428	共识	-0.05613438
-3.720428	关于	-0.05613438
-3.069788	关注	-0.2370728
-3.720428	关注点	-0.05613438
-3.720428	关键	-0.05613438
-3.720428	兴奋	-0.05613438
-3.720428	兴趣爱好	-0.05613438
-2.99603	其	-0.05613438
-3.421743	其中	-0.05613438
-3.158687	其他	-0.05613438
-3.720428	其余	-0.05613438
-3.720428	其实	-0.05613437
-3.720428	其装	-0.05613438
-3.270595	具体	-0.05613437
-3.720428	具体方法	-0.05613438
-3.720428	具备	-0.05613437
-3.720428	具有	-0.05613437
-3.577401	兼职	-0.05613437
-3.069788	内	-0.09038453
-3.720428	内买	-0.05613438
-3.720428	内侧	-0.05613438
-3.577401	内因	-0.05613437
-3.720428	内外	-0.05613437
-3.720428	内存	-0.05613437
-3.720428	内容	-0.05613438
-3.720428	内战	-0.05613438
-3.720428	内环	-0.05613438
-3.720428	内设	-0.05613437
-3.720428	内部	-0.05613437
-3.577401	再	-0.05613438
-3.421743	再度	-0.05613437
-3.720428	再次	-0.05613438
-3.577401	冠军	-0.05613437
-3.720428	冰晶	-0.05613438
-3.577401	冲击	-0.05613438
-3.720428	冲突	-0.05613438
-3.270595	决定	-0.05613438
-3.577401	决赛	-0.05613438
-3.720428	冷静	-0.05613438
-3.577401	净	-0.1682375
-3.577401	净利润	-0.05613438
-3.720428	净流入	-0.05613438
-3.720428	准备	-0.05613438
-3.720428	准备金	-0.05613437
-3.421743	减少	-0.5529773
-3.720428	减弱	-0.05613438
-3.577401	几个	-0.1682375
-3.577401	几乎	-0.05613438
-3.720428	几厘米	-0.05613437
-3.720428	凤凰	-0.05613437
-3.720428	凤凰网	-0.05613438
-2.99603	出	-0.05613438
-3.720428	出发	-0.05613438
-3.720428	出发点	-0.05613438
-3.421743	出台	-0.05613437
-3.720428	出库	-0.05613438
-3.421743	出来	-0.1275688
-2.99603	出现	-0.08532315
-3.720428	出生	-0.05613438
-3.720428	出生证	-0.05613438
-3.720428	出租屋	-0.05613438
-3.720428	出纳	-0.05613438
-3.720428	出纳员	-0.05613438
-3.577401	击毙	-0.05613437
-3.577401	击败	-0.05613438
-3.720428	刀下	-0.05613438
-3.577401	分为	-0.05613438
-3.720428	分别	-0.05613437
-3.720428	分店	-0.05613438
-3.720428	分支	-0.05613438
-3.720428	分给	-0.05613437
-3.720428	分配	-0.05613438
-3.720428	刑事拘留	-0.05613438
-3.720428	列日	-0.05613438
-3.577401	则	-0.05613438
-3.720428	刚	-0.05613437
-3.577401	刚刚	-0.05613438
-3.720428	刚才	-0.05613437
-3.720428	创	-0.05613438
-3.720428	创业	-0.05613438
-3.577401	创业板	-0.1682375
-3.720428	创建	-0.05613438
-3.720428	创新	-0.05613438
-3.720428	创造	-0.05613438
-3.720428	判断	-0.05613437
-3.720428	利好	-0.05613438
-3.720428	利息	-0.05613438
-3.720428	利息支出	-0.05613438
-3.577401	利润	-0.05613438
-3.720428	利用	-0.05613437
-3.720428	利益	-0.05613437
-3.421743	别	-0.05613437
-2.877967	到	-0.05613438
-3.720428	到位	-0.05613438
-3.720428	到场	-0.05613438
-3.720428	到底	-0.05613438
-3.720428	到达	-0.05613438
-3.720428	制作	-0.05613438
-2.99603	制度	-0.07866511
-3.720428	制服	-0.05613438
-3.158687	制造	-0.05613438
-3.720428	刺伤	-0.05613438
-3.720428	剁	-0.05613437
-3.720428	削弱	-0.05613437
-3.720428	削顶	-0.05613437
-3.270595	前	-0.05613438
-3.720428	前不久	-0.05613438
-3.720428	前后	-0.05613438
-3.720428	前所未有	-0.05613438
-3.720428	前期	-0.05613437
-3.577401	前来	-0.1682375
-3.720428	剑	-0.05613437
-3.720428	剥离	-0.05613438
-3.421743	剧场	-0.05613437
-3.720428	剽窃	-0.05613438
-3.421743	力度	-0.5529773
-3.720428	劝解	-0.05613438
-3.720428	劝说	-0.05613437
-3.720428	办事处	-0.05613438
-3.720428	办成	-0.05613437
-3.270595	办法	-0.05613438
-3.720428	功能	-0.05613438
-3.720428	加上	-0.05613438
-3.720428	加入	-0.05613438
-3.577401	加大	-0.1682375
-3.720428	加大力度	-0.05613438
-3.720428	动	-0.05613437
-3.720428	动作	-0.05613438
-3.577401	动力	-0.1682375
-3.720428	动手	-0.05613437
-3.720428	动植物园	-0.05613438
-3.720428	助架	-0.05613437
-3.720428	勇气	-0.05613437
-3.577401	募	-0.05613437
-3.720428	化	-0.05613438
-3.720428	化名	-0.05613437
-3.270595	北京	-0.07160726
-3.720428	北京市	-0.05613437
-3.720428	北段	-0.05613438
-3.720428	北湖	-0.05613438
-3.720428	北部	-0.05613437
-3.720428	区东	-0.05613437
-3.720428	医师	-0.05613437
-3.720428	医生	-0.05613437
-3.720428	医药费	-0.05613438
-3.577401	医院	-0.05613437
-3.577401	十一	-0.1682375
-3.720428	十一个	-0.05613437
-3.720428	十一倍	-0.05613438
-3.720428	十一日	-0.05613437
-3.720428	十七年	-0.05613438
-3.720428	十二个	-0.05613437
-3.720428	十二位	-0.05613438
-3.720428	十二月	-0.05613437
-3.720428	十二月份	-0.05613438
-3.720428	十五	-0.05613438
-3.720428	十五万	-0.05613438
-3.720428	十元	-0.05613438
-3.720428	十六	-0.05613437
-3.720428	十六日	-0.05613438
-3.270595	十分	-0.05613438
-3.720428	十分相似	-0.05613438
-3.720428	十分钟	-0.05613438
-3.421743	十年	-0.1085788
-3.720428	十月	-0.05613438
-3.720428	十月十日	-0.05613438
-3.720428	千元	-0.05613438
-3.720428	升温	-0.05613438
-3.577401	半决赛	-0.05613438
-3.720428	半小时	-0.05613438
-3.720428	半数	-0.05613438
-3.577401	华威	-0.1275688
-3.720428	华山	-0.05613438
-3.720428	协商	-0.05613437
-3.720428	卓阳	-0.05613438
-3.720428	单一	-0.05613438
-3.720428	单位	-0.05613438
-3.720428	单打	-0.05613438
-3.720428	单纯	-0.05613437
-3.720428	卖萌	-0.05613437
-3.720428	南一街	-0.05613438
-3.720428	南口	-0.05613438
-3.720428	南桥	-0.05613438
-3.720428	南沙	-0.05613437
-3.720428	南翔	-0.05613438
-3.720428	南部	-0.05613438
-3.720428	博客	-0.05613438
-3.720428	博物馆	-0.05613437
-3.720428	卜卦	-0.05613438
-3.720428	占地	-0.05613437
-3.720428	占款	-0.05613438
-3.720428	占用	-0.05613437
-3.720428	卯足了劲	-0.05613438
-3.720428	印制	-0.05613437
-3.577401	印度	-0.05613438
-3.577401	危机感	-0.1682375
-3.720428	危险	-0.05613438
-3.720428	即	-0.05613438
-3.577401	即使	-0.05613437
-3.720428	即将	-0.05613438
-3.158687	却	-0.09757105
-3.720428	却是	-0.05613437
-3.577401	卷	-0.1682375
-3.720428	卷层云	-0.05613438
-3.720428	压力	-0.05613438
-3.577401	原则	-0.05613437
-3.720428	原则性	-0.05613438
-3.720428	原味	-0.05613438
-3.720428	原因	-0.05613437
-3.720428	原由	-0.05613438
-3.720428	厦门	-0.05613438
-2.877967	去	-0.102429
-3.720428	去年	-0.05613437
-3.720428	去年底	-0.05613438
-3.720428	县间	-0.05613438
-3.720428	参与	-0.05613438
-3.720428	参加	-0.05613438
-2.99603	又	-0.08532315
-3.069788	及	-0.05613438
-3.720428	及其	-0.05613437
-3.421743	及时	-0.05613438
-3.720428	双双	-0.05613437
-3.720428	双方	-0.05613438
-3.720428	双楠	-0.05613438
-3.720428	反	-0.05613438
-3.720428	反射	-0.05613438
-3.720428	反应	-0.05613438
-3.577401	反映	-0.05613438
-3.720428	发声	-0.05613438
-2.99603	发展	-0.430586
-2.932999	发布	-0.1085788
-3.720428	发布会	-0.05613438
-3.720428	发挥	-0.05613437
-3.577401	发放	-0.05613438
-3.720428	发来	-0.05613438
-3.270595	发现	-0.284458
-2.932999	发生	-0.08156545
-3.720428	发生争执	-0.05613438
-3.720428	发生变化	-0.05613438
-3.720428	发福	-0.05613437
-3.577401	发行	-0.05613438
-3.720428	发行价	-0.05613438
-3.720428	发言人	-0.05613438
-3.720428	发达	-0.05613438
-3.720428	取代	-0.05613438
-3.421743	取消	-0.05613437
-3.720428	取胜	-0.05613438
-3.577401	受伤	-0.05613437
-3.577401	受到	-0.05613438
-3.720428	受到冲击	-0.05613438
-3.720428	受助者	-0.05613438
-3.720428	受益权	-0.05613438
-3.720428	受限于	-0.05613438
-3.577401	变温	-0.1682375
-3.720428	变相	-0.05613438
-3.720428	古城	-0.05613438
-3.720428	另	-0.05613438
-3.577401	另外	-0.05613437
-3.270595	只	-0.05613438
-3.720428	只会	-0.05613438
-3.577401	只是	-0.05613438
-3.577401	只有	-0.05613438
-3.720428	只能	-0.05613438
-3.720428	只要	-0.05613438
-3.720428	叫	-0.05613437
-3.720428	叫做	-0.05613438
-3.421743	召开	-0.1275688
-2.932999	可	-0.488578
-2.99603	可以	-0.05613438
-3.720428	可大可小	-0.05613438
-3.158687	可能	-0.09757105
-3.720428	可能性	-0.05613438
-3.720428	台	-0.05613438
-3.720428	台湾	-0.05613438
-3.720428	史上	-0.05613438
-3.720428	号召力	-0.05613437
-3.720428	号门	-0.05613438
-3.720428	司机	-0.05613438
-3.577401	各	-0.1682375
-3.720428	各个	-0.05613438
-3.720428	各大	-0.05613438
-3.720428	各方	-0.05613438
-3.577401	各种	-0.05613438
-3.720428	合作	-0.05613437
-3.577401	合影	-0.05613437
-3.720428	合法权益	-0.05613438
-3.720428	合理	-0.05613438
-3.720428	合规	-0.05613438
-3.720428	吉利	-0.05613438
-3.720428	吊销	-0.05613437
-3.720428	同	-0.05613437
-3.720428	同时	-0.05613438
-3.720428	同步	-0.05613437
-3.720428	名	-0.05613438
-3.720428	名为	-0.05613437
-3.720428	名义	-0.05613437
-3.720428	名将	-0.05613438
-3.720428	名店	-0.05613438
-2.537492	后	-0.2617787
-3.720428	后大	-0.05613438
-3.720428	后拟	-0.05613438
-3.720428	后期	-0.05613437
-3.720428	后者	-0.05613438
-3.720428	后面	-0.05613438
-3.069788	向	-0.05613438
-3.720428	向下	-0.05613437
-3.720428	向来	-0.05613437
-3.421743	吗	-0.5529773
-3.720428	听取	-0.05613438
-3.720428	听歌曲	-0.05613438
-3.720428	启动	-0.05613437
-3.720428	吴幼文	-0.05613438
-3.720428	吵架	-0.05613437
-3.720428	吸引	-0.05613438
-3.720428	呃	-0.05613437
-3.720428	呈现	-0.05613437
-3.720428	呈现出	-0.05613438
-3.720428	员	-0.05613437
-3.577401	员工	-0.05613438
-3.720428	呢	-0.05613438
-3.720428	周围	-0.05613438
-3.421743	周杰伦	-0.05613438
-3.720428	周董	-0.05613437
-3.720428	周边国家	-0.05613438
-3.577401	味道	-0.1682375
-2.154958	和	-0.06045155
-3.720428	咖啡	-0.05613437
-3.720428	咬伤	-0.05613437
-3.720428	品牌	-0.05613437
-3.720428	哈根达斯	-0.05613438
-3.720428	响子	-0.05613438
-3.720428	哪	-0.05613438
-3.720428	哪些	-0.05613437
-3.720428	哪儿	-0.05613437
-3.720428	哪见	-0.05613438
-3.720428	售价	-0.05613437
-3.720428	售后	-0.05613438
-3.720428	售楼盘	-0.05613438
-3.270595	唱	-0.1682375
-3.720428	商厦	-0.05613438
-3.720428	商品房	-0.05613438
-3.720428	商城	-0.05613438
-3.720428	商店	-0.05613438
-3.720428	商标	-0.05613438
-3.720428	喊	-0.05613438
-3.577401	喜欢	-0.05613438
-3.720428	喜爱	-0.05613438
-3.720428	嗣后	-0.05613438
-3.720428	嗯	-0.05613438
-3.577401	嘉定	-0.05613438
-3.720428	器官	-0.05613437
-3.720428	噱头	-0.05613438
-2.614779	四	-0.6186006
-3.421743	四个	-0.1275688
-3.720428	四十余万	-0.05613437
-3.720428	四十六岁	-0.05613438
-3.577401	四千	-0.05613438
-3.720428	四千万	-0.05613437
-3.577401	四家	-0.05613438
-3.720428	四川	-0.05613437
-3.577401	四年	-0.05613438
-3.720428	四成	-0.05613438
-3.720428	四月	-0.05613438
-3.720428	四段	-0.05613438
-3.720428	四环	-0.05613438
-3.720428	四百	-0.05613437
-3.720428	四线	-0.05613438
-3.720428	四组	-0.05613438
-3.720428	回到	-0.05613437
-3.577401	回暖	-0.1682375
-3.720428	回球	-0.05613438
-3.720428	回答	-0.05613438
-3.421743	因	-0.05613437
-3.158687	因为	-0.05613438
-3.720428	因报	-0.05613437
-3.720428	因未	-0.05613438
-3.720428	因此	-0.05613438
-3.577401	因素	-0.05613437
-3.720428	团队	-0.05613437
-3.720428	囧	-0.05613438
-3.720428	园	-0.05613438
-3.720428	园区	-0.05613438
-3.720428	困扰	-0.05613438
-3.720428	围绕	-0.05613438
-3.577401	国企	-0.05613438
-3.720428	国内	-0.05613438
-3.720428	国务院	-0.05613438
-3.270595	国家	-0.05613438
-3.720428	国民	-0.05613438
-3.577401	国球	-0.05613438
-3.720428	国立	-0.05613437
-3.720428	国色	-0.05613437
-3.720428	国防	-0.05613437
-3.720428	国际	-0.05613437
-3.720428	国际乒联	-0.05613438
-3.421743	国际奥委会	-0.05613437
-3.577401	图	-0.05613438
-3.720428	图纸	-0.05613438
-3.720428	土地	-0.05613438
-2.058836	在	-0.07202198
-3.720428	在于	-0.05613438
-3.720428	在家	-0.05613437
-3.421743	在意	-0.1275688
-3.069788	地	-0.05613438
-3.421743	地产	-0.05613437
-3.577401	地区	-0.05613437
-3.158687	地方	-0.09038454
-3.720428	地球	-0.05613438
-3.577401	地盘	-0.1682375
-3.720428	场外	-0.05613437
-3.720428	均	-0.05613438
-3.720428	坐月子	-0.05613438
-3.720428	坚决执行	-0.05613438
-3.577401	垃圾箱	-0.05613437
-3.421743	城	-0.1275688
-3.720428	城区	-0.05613437
-3.720428	城堡	-0.05613438
-2.99603	城市	-0.05613438
-3.577401	城市化	-0.05613437
-3.720428	城市道路	-0.05613438
-3.720428	城隍庙	-0.05613437
-3.421743	培养	-0.05613437
-3.577401	基于	-0.05613438
-3.421743	基本	-0.05613438
-3.720428	基本上	-0.05613437
-3.577401	基础	-0.05613438
-3.720428	基础设施	-0.05613438
-3.720428	基站设备	-0.05613438
-2.643932	基金	-0.3594079
-3.577401	基金法	-0.05613437
-3.720428	堆积	-0.05613438
-3.720428	堰西巷	-0.05613438
-3.720428	堵	-0.05613438
-3.720428	塔斯	-0.05613438
-3.270595	增加	-0.05613437
-3.577401	增多	-0.05613437
-3.720428	增量	-0.05613438
-3.720428	增长	-0.05613438
-3.720428	墨西哥	-0.05613438
-3.720428	墨镜	-0.05613438
-3.720428	声	-0.05613438
-3.720428	声称	-0.05613438
-3.421743	处于	-0.05613437
-3.421743	处理	-0.05613437
-3.720428	处理器	-0.05613438
-3.720428	复杂	-0.05613438
-3.720428	复苏	-0.05613437
-3.720428	夏朵	-0.05613438
-3.720428	外出	-0.05613438
-3.720428	外国人	-0.05613438
-3.720428	外地	-0.05613438
-3.720428	外地人	-0.05613437
-3.577401	外形	-0.05613438
-3.720428	外汇	-0.05613437
-3.720428	外滩	-0.05613437
-3.421743	外界	-0.05613437
-3.720428	外部	-0.05613438
-3.720428	外面	-0.05613437
-3.069788	多	-0.1136761
-3.577401	多个	-0.05613437
-3.720428	多以	-0.05613437
-3.720428	多位	-0.05613438
-3.720428	多变	-0.05613438
-3.720428	多名	-0.05613437
-3.720428	多家	-0.05613437
-3.720428	多年	-0.05613438
-3.720428	多来	-0.05613438
-3.720428	多渠道	-0.05613438
-3.720428	多种	-0.05613438
-3.720428	多车	-0.05613438
-3.720428	多迪卡	-0.05613437
-3.720428	多项	-0.05613438
-3.720428	夜市	-0.05613438
-3.720428	夜空	-0.05613438
-3.720428	够不上	-0.05613438
-3.069788	大	-0.05613438
-3.720428	大S	-0.05613438
-3.720428	大于	-0.05613438
-3.720428	大力	-0.05613438
-3.577401	大厦	-0.05613438
-3.720428	大名鼎鼎	-0.05613438
-3.270595	大型	-0.1085788
-3.577401	大城市	-0.05613437
-3.720428	大大降低	-0.05613438
-3.720428	大家	-0.05613437
-3.720428	大容量	-0.05613437
-3.720428	大小	-0.05613438
-3.720428	大成	-0.05613437
-3.720428	大户	-0.05613438
-3.577401	大楼	-0.05613437
-3.720428	大片	-0.05613438
-3.720428	大理	-0.05613438
-3.720428	大疆	-0.05613437
-3.577401	大篷车	-0.05613438
-3.720428	大约	-0.05613437
-3.720428	大街	-0.05613438
-3.577401	大道	-0.05613437
-3.720428	大酒楼	-0.05613437
-3.720428	大量	-0.05613438
-3.720428	天乡	-0.05613437
-3.720428	天山	-0.05613438
-3.577401	天津	-0.05613438
-3.577401	天王	-0.05613438
-3.720428	天空	-0.05613438
-3.720428	太	-0.05613437
-3.720428	太田	-0.05613437
-3.577401	太过	-0.05613438
-3.720428	太阳	-0.05613437
-3.720428	太阳雨	-0.05613438
-3.720428	失去	-0.05613437
-3.720428	失态	-0.05613438
-3.720428	失踪	-0.05613438
-3.720428	奔驰	-0.05613438
-3.720428	奖杯	-0.05613437
-3.421743	套	-0.5529773
-3.421743	套房	-0.05613438
-3.720428	套数	-0.05613438
-3.577401	奥	-0.05613438
-3.577401	奥恰	-0.1682375
-3.720428	奥斯卡	-0.05613437
-3.720428	奥组委	-0.05613438
-3.421743	奥运	-0.2061358
-3.720428	奥运会徽	-0.05613438
-3.421743	女儿	-0.05613437
-3.069788	女子	-0.09038454
-3.720428	女孩	-0.05613438
-3.720428	女童	-0.05613437
-3.577401	奶奶	-0.05613438
-3.577401	她	-0.05613437
-2.785235	好	-0.2602197
-3.577401	好像	-0.05613438
-3.577401	好友	-0.05613438
-3.720428	好吃	-0.05613437
-3.720428	好莱坞	-0.05613437
-3.720428	如今	-0.05613438
-3.158687	如何	-0.05613438
-3.720428	如同	-0.05613437
-3.720428	如愿	-0.05613438
-3.421743	如果	-0.1275688
-3.421743	如此	-0.05613437
-3.577401	妈妈	-0.1682375
-3.720428	妻子	-0.05613437
-3.577401	姐妹	-0.05613438
-3.720428	威慑	-0.05613437
-3.720428	威胁	-0.05613437
-3.720428	娇小	-0.05613438
-3.577401	娱乐	-0.05613438
-3.577401	媒体	-0.05613438
-3.421743	媒体报道	-0.05613437
-3.720428	嫌疑	-0.05613438
-3.720428	嫌疑人	-0.05613438
-3.577401	子公司	-0.05613438
-3.720428	孔乙己	-0.05613437
-3.720428	孔亮	-0.05613437
-3.720428	孔家	-0.05613438
-3.720428	存储器	-0.05613438
-3.069788	存在	-0.2370728
-3.421743	存量	-0.1275688
-3.720428	孙中山	-0.05613437
-3.270595	学校	-0.05613438
-3.158687	孩子	-0.284458
-3.720428	孵化期	-0.05613438
-3.270595	它	-0.09757105
-3.720428	它们	-0.05613438
-3.720428	守护人	-0.05613438
-3.720428	守护者	-0.05613438
-3.069788	安全	-0.2061358
-3.720428	安宁	-0.05613438
-3.421743	完全	-0.05613438
-3.421743	完善	-0.1085788
-3.720428	完备	-0.05613438
-3.720428	完美	-0.05613438
-3.720428	完胜	-0.05613437
-3.720428	宏观调控	-0.05613438
-3.720428	官方	-0.05613437
-3.720428	定	-0.05613438
-3.720428	定位仪	-0.05613438
-3.720428	定制	-0.05613437
-3.720428	实力	-0.05613437
-3.158687	实施	-0.284458
-3.158687	实现	-0.09757105
-3.421743	实行	-0.1275688
-3.270595	实际	-0.05613438
-3.577401	宠物狗	-0.05613438
-3.577401	审批	-0.05613438
-3.720428	客	-0.05613438
-3.577401	客户	-0.05613438
-3.270595	宣布	-0.05613437
-3.720428	宣称	-0.05613437
-3.720428	害怕	-0.05613438
-3.720428	家乐福	-0.05613438
-3.720428	家人	-0.05613437
-3.720428	家居	-0.05613437
-3.720428	家属	-0.05613438
-3.720428	家庭	-0.05613438
-3.720428	容易	-0.05613438
-3.720428	宽	-0.05613438
-3.720428	宽松	-0.05613438
-3.720428	密不可分	-0.05613438
-3.720428	密切	-0.05613438
-3.720428	富林美	-0.05613437
-3.720428	寒暑假	-0.05613437
-3.720428	寮	-0.05613437
-2.471904	对	-0.08241113
-3.421743	对于	-0.05613437
-3.720428	对公	-0.05613438
-3.720428	对冲	-0.05613437
-3.720428	对待	-0.05613438
-3.720428	对手	-0.05613438
-3.720428	对抗	-0.05613438
-3.720428	对此	-0.05613437
-3.720428	对称	-0.05613437
-3.720428	对象	-0.05613437
-3.421743	寺	-0.1275688
-3.577401	导游	-0.05613438
-3.720428	导游证	-0.05613438
-3.421743	导致	-0.05613437
-3.720428	封杀	-0.05613438
-2.433105	将	-0.07506672
-3.421743	将会	-0.05613437
-3.421743	小	-0.05613437
-3.421743	小S	-0.05613438
-3.720428	小伙	-0.05613437
-3.720428	小勇	-0.05613437
-3.577401	小区	-0.05613438
-3.720428	小型	-0.05613438
-3.421743	小女儿	-0.05613437
-3.720428	小孩	-0.05613438
-3.720428	小拇指	-0.05613438
-3.577401	小时	-0.1275688
-3.720428	小游园	-0.05613438
-3.720428	小猴子	-0.05613437
-3.720428	小田雾	-0.05613437
-3.577401	小贩	-0.05613437
-3.720428	小轿车	-0.05613438
-3.421743	小鸡	-0.1275688
-3.720428	少有	-0.05613437
-3.720428	尖刀	-0.05613437
-3.720428	尚街	-0.05613437
-3.577401	尤其	-0.1682375
-2.675185	就	-0.0686638
-3.577401	就业机会	-0.05613438
-2.877967	就是	-0.05613438
-3.720428	就要	-0.05613437
-3.720428	尸体	-0.05613437
-3.720428	尽快	-0.05613438
-3.720428	局部地区	-0.05613438
-3.720428	局面	-0.05613438
-3.270595	居民	-0.284458
-3.720428	屏幕	-0.05613438
-3.720428	屏道	-0.05613438
-3.577401	展示	-0.1682375
-3.720428	屡	-0.05613438
-3.720428	履职	-0.05613438
-3.720428	山里红	-0.05613438
-3.720428	崇明岛	-0.05613438
-3.720428	巡航	-0.05613438
-3.577401	工业	-0.05613437
-3.720428	工人	-0.05613437
-3.577401	工作	-0.1682375
-3.577401	工作日	-0.05613438
-3.577401	工作站	-0.1682375
-3.720428	工作者	-0.05613438
-3.270595	工厂	-0.09038454
-3.577401	工艺	-0.05613438
-3.720428	左	-0.05613438
-3.421743	左右	-0.05613437
-3.577401	左小蕾	-0.05613437
-3.577401	巨大	-0.1682375
-3.720428	巩固	-0.05613438
-3.720428	差别化	-0.05613438
-3.720428	差异	-0.05613438
-2.708862	已	-0.08765184
-3.577401	已有	-0.1682375
-3.069788	已经	-0.05613438
-3.720428	已获	-0.05613438
-3.720428	巴士	-0.05613437
-3.720428	市	-0.05613438
-3.720428	市值	-0.05613437
-2.614779	市场	-0.2268113
-3.720428	市场主体	-0.05613437
-3.720428	市场份额	-0.05613438
-3.577401	市场部	-0.05613437
-3.720428	市场需求	-0.05613438
-3.720428	市政府	-0.05613438
-3.577401	市民	-0.05613438
-3.720428	市盈率	-0.05613437
-3.720428	市长	-0.05613438
-3.577401	布局	-0.05613437
-3.158687	希望	-0.05613438
-3.720428	带	-0.05613438
-3.720428	带动	-0.05613438
-3.720428	带来	-0.05613437
-3.720428	席卷	-0.05613437
-3.720428	帮	-0.05613438
-3.720428	帮大	-0.05613438
-3.720428	帽子	-0.05613438
-3.577401	干	-0.05613438
-3.421743	平台	-0.1275688
-3.720428	平时	-0.05613437
-3.577401	平泽市	-0.05613437
-3.720428	平米	-0.05613438
-3.720428	年内	-0.05613437
-3.720428	年头	-0.05613438
-3.720428	年报	-0.05613437
-3.577401	年轻	-0.05613438
-3.720428	年龄段	-0.05613438
-2.675185	并	-0.1117793
-3.720428	并不一定	-0.05613437
-3.720428	并且	-0.05613437
-3.270595	并未	-0.05613438
-3.577401	并非	-0.05613438
-3.720428	幸福	-0.05613438
-3.720428	幸运	-0.05613438
-2.877967	幺	-0.2952042
-3.270595	广场	-0.1085788
-3.421743	广州	-0.05613437
-3.720428	庄智渊	-0.05613438
-3.720428	应	-0.05613438
-3.720428	应从	-0.05613437
-3.720428	应对	-0.05613438
-3.270595	应用	-0.05613437
-3.270595	应该	-0.05613438
-3.720428	底线	-0.05613438
-2.932999	店	-0.6679433
-3.720428	店子	-0.05613438
-3.720428	度	-0.05613438
-3.720428	康斯坦丁	-0.05613437
-3.720428	康熙	-0.05613438
-3.577401	延长	-0.05613438
-3.720428	建成	-0.05613438
-3.421743	建立	-0.05613438
-3.720428	建议	-0.05613438
-3.421743	建设	-0.1275688
-3.720428	建部	-0.05613438
-3.720428	开发	-0.05613438
-3.421743	开发商	-0.05613438
-3.720428	开园	-0.05613437
-3.069788	开始	-0.05613438
-3.069788	开展	-0.09038452
-3.720428	开展业务	-0.05613438
-3.720428	开幕	-0.05613438
-3.421743	开盘	-0.05613437
-3.720428	弊端	-0.05613438
-3.577401	式	-0.05613438
-3.720428	引来	-0.05613438
-3.720428	引爆	-0.05613437
-3.720428	弗雷	-0.05613437
-3.577401	张伟	-0.05613437
-3.720428	张大嘴巴	-0.05613438
-3.720428	张女士	-0.05613438
-3.720428	张昆龙	-0.05613437
-3.720428	弥补	-0.05613437
-3.720428	强烈	-0.05613438
-3.577401	强行	-0.05613437
-3.421743	强调	-0.05613438
-3.720428	当	-0.05613438
-3.720428	当三	-0.05613438
-3.720428	当中	-0.05613438
-3.577401	当事人	-0.05613438
-3.720428	当做	-0.05613437
-3.577401	当前	-0.1682375
-3.577401	当地	-0.05613438
-3.720428	当场	-0.05613437
-3.720428	当天	-0.05613438
-3.577401	当时	-0.05613438
-3.577401	形式	-0.1682375
-3.577401	形成	-0.05613437
-3.720428	形是	-0.05613438
-3.720428	形象	-0.05613438
-3.270595	影响	-0.05613437
-3.720428	影响力	-0.05613438
-3.720428	影帝	-0.05613438
-3.720428	影片	-0.05613437
-3.720428	彻底	-0.05613437
-3.720428	往下走	-0.05613438
-3.720428	征信	-0.05613438
-3.720428	征求意见	-0.05613438
-3.720428	征管	-0.05613438
-3.720428	征选	-0.05613437
-3.069788	很	-0.05613438
-3.421743	很多	-0.1085788
-3.720428	很强	-0.05613438
-3.577401	很快	-0.05613438
-3.577401	得	-0.05613438
-3.720428	得不偿失	-0.05613438
-3.720428	得出结论	-0.05613438
-3.720428	得到	-0.05613438
-3.720428	微博	-0.05613438
-3.720428	微博上	-0.05613437
-3.720428	微博晒	-0.05613438
-3.720428	微小	-0.05613438
-3.720428	德国	-0.05613437
-3.720428	心	-0.05613438
-3.720428	心情	-0.05613438
-3.720428	心脏	-0.05613437
-3.720428	必将	-0.05613437
-3.720428	必要	-0.05613438
-3.720428	必要性	-0.05613437
-3.720428	必须	-0.05613438
-3.720428	忘记	-0.05613438
-3.720428	忠心耿耿	-0.05613438
-3.720428	快乐	-0.05613438
-3.720428	快讯	-0.05613437
-3.720428	快速	-0.05613438
-3.720428	怀	-0.05613437
-3.720428	怀中	-0.05613438
-3.720428	态势	-0.05613438
-3.720428	态度	-0.05613438
-3.421743	怎么	-0.05613438
-3.720428	怕	-0.05613438
-3.720428	思特理	-0.05613438
-3.720428	思考	-0.05613438
-3.720428	思蜀	-0.05613437
-3.720428	思路	-0.05613438
-3.720428	急剧	-0.05613438
-3.577401	性能	-0.05613438
-3.720428	总体	-0.05613438
-3.720428	总共	-0.05613438
-3.720428	总裁	-0.05613437
-3.720428	恋人	-0.05613438
-3.720428	恒大	-0.05613438
-3.577401	恢复	-0.05613438
-3.720428	您	-0.05613438
-3.720428	悼念	-0.05613437
-3.720428	情侣	-0.05613437
-2.932999	情况	-0.235451
-3.720428	情感	-0.05613438
-3.720428	情歌	-0.05613437
-3.720428	情绪稳定	-0.05613438
-3.720428	惨死	-0.05613438
-3.720428	想	-0.05613437
-3.720428	想要	-0.05613437
-3.720428	惹	-0.05613437
-3.720428	意在	-0.05613438
-3.421743	意见	-0.1682375
-3.720428	愚路店	-0.05613438
-3.720428	感叹	-0.05613438
-3.720428	戈齐	-0.05613437
-3.270595	成为	-0.05613437
-3.720428	成交	-0.05613438
-3.421743	成功	-0.05613437
-3.720428	成果	-0.05613438
-3.720428	成立	-0.05613438
-3.577401	成都	-0.05613438
-2.99603	我	-0.1842985
-2.745372	我们	-0.1353008
-3.720428	我国	-0.05613437
-3.421743	或	-0.05613437
-3.720428	或少	-0.05613438
-3.720428	或者	-0.05613438
-3.720428	或许	-0.05613438
-3.720428	战胜	-0.05613437
-3.720428	截至	-0.05613438
-3.720428	戴	-0.05613438
-3.720428	房产	-0.05613438
-3.720428	房产频道	-0.05613437
-2.932999	房价	-0.07866512
-3.720428	房企	-0.05613438
-3.720428	房企已	-0.05613438
-2.745372	房地产	-0.3984251
-3.720428	房源	-0.05613438
-3.720428	房租	-0.05613437
-3.720428	房管	-0.05613437
-3.720428	房贷	-0.05613438
-3.158687	所	-0.05613438
-3.720428	所以	-0.05613438
-3.720428	所幸	-0.05613438
-3.270595	所有	-0.05613437
-3.720428	所有权	-0.05613438
-3.577401	所有者	-0.1682375
-3.720428	所致	-0.05613438
-3.577401	所谓	-0.05613437
-3.720428	手指	-0.05613438
-3.158687	手机	-0.05613437
-3.720428	手环	-0.05613437
-3.720428	手臂	-0.05613437
-3.720428	才	-0.05613438
-3.720428	扑灭	-0.05613438
-3.577401	打	-0.05613438
-3.720428	打击	-0.05613438
-3.577401	打印	-0.05613437
-3.720428	打印机	-0.05613437
-3.577401	打开	-0.05613437
-3.720428	打电话	-0.05613438
-3.720428	打造	-0.05613438
-3.720428	托	-0.05613438
-3.720428	托管	-0.05613437
-3.577401	托管人	-0.05613438
-3.270595	执行	-0.1085788
-3.720428	扫清	-0.05613437
-3.720428	扬言	-0.05613438
-3.720428	扮演	-0.05613438
-3.421743	扶持	-0.05613437
-3.720428	扶植	-0.05613438
-3.720428	批判	-0.05613438
-3.720428	承认	-0.05613438
-3.421743	承诺	-0.1275688
-3.158687	技术	-0.05613438
-3.577401	抄袭	-0.05613438
-2.932999	把	-0.05613438
-3.720428	抑制	-0.05613437
-3.720428	投入	-0.05613437
-3.720428	投机	-0.05613437
-3.270595	投资	-0.05613437
-3.720428	投资性	-0.05613438
-3.720428	抗议信	-0.05613438
-3.720428	折	-0.05613438
-3.720428	折射	-0.05613438
-3.720428	折扣	-0.05613438
-3.720428	抢	-0.05613438
-3.577401	抢占	-0.05613438
-3.720428	抢攻	-0.05613437
-3.577401	抢救无效	-0.1275688
-3.270595	报告	-0.05613438
-3.720428	报摊	-0.05613437
-3.720428	报警	-0.05613438
-3.720428	报送	-0.05613438
-3.421743	报道	-0.05613437
-3.421743	抱	-0.1275688
-3.720428	抽烟	-0.05613438
-3.720428	抽象	-0.05613438
-3.720428	拉着	-0.05613437
-3.720428	拍	-0.05613437
-3.577401	拍照	-0.1275688
-3.720428	拒交	-0.05613438
-3.720428	拘	-0.05613438
-3.270595	拥堵	-0.1085788
-3.720428	拥有	-0.05613437
-3.720428	拿下	-0.05613438
-3.720428	持	-0.05613438
-3.577401	持刀	-0.05613438
-3.577401	持有	-0.05613438
-3.577401	持有人	-0.1275688
-3.421743	持续	-0.05613437
-3.720428	持续时间	-0.05613437
-3.577401	持股	-0.05613438
-3.720428	持近	-0.05613437
-3.720428	挂钩	-0.05613438
-3.270595	指出	-0.05613437
-3.720428	指导	-0.05613438
-3.720428	指控	-0.05613438
-3.720428	指数	-0.05613438
-3.720428	指明	-0.05613438
-3.069788	指标	-0.07866511
-3.720428	指该	-0.05613438
-3.577401	按照	-0.05613438
-3.577401	挑	-0.05613438
-3.577401	挑剔	-0.05613437
-3.720428	挑战赛	-0.05613438
-3.720428	挣钱	-0.05613438
-3.720428	挥刀	-0.05613437
-3.577401	挪用	-0.05613438
-3.720428	挪用公款	-0.05613438
-3.720428	挽回	-0.05613437
-3.720428	挽救	-0.05613438
-3.720428	损失	-0.05613438
-3.720428	据	-0.05613437
-3.720428	据为己有	-0.05613438
-3.720428	掀	-0.05613438
-3.720428	掀开	-0.05613438
-3.577401	授信	-0.05613438
-3.720428	授信额度	-0.05613438
-3.577401	授权	-0.05613437
-3.720428	掉	-0.05613437
-3.720428	排名	-0.05613437
-3.720428	探	-0.05613438
-3.421743	探索	-0.05613438
-3.720428	接	-0.05613438
-3.720428	接下来	-0.05613438
-3.577401	接受	-0.05613437
-3.720428	接盘	-0.05613437
-3.577401	接近	-0.05613438
-3.720428	控制	-0.05613438
-3.720428	控制器	-0.05613438
-3.720428	控股	-0.05613438
-3.720428	推	-0.05613438
-3.720428	推估	-0.05613437
-3.069788	推出	-0.08532315
-3.270595	推动	-0.05613438
-3.577401	推广	-0.05613437
-3.577401	推盘	-0.05613438
-3.720428	推货	-0.05613438
-3.720428	推进	-0.05613438
-3.270595	措施	-0.1085788
-3.421743	提供	-0.05613437
-3.720428	提出	-0.05613438
-3.720428	提到	-0.05613438
-3.421743	提高	-0.05613437
-3.720428	揭晓	-0.05613438
-3.720428	揽入	-0.05613437
-3.577401	搜狐	-0.05613438
-3.720428	搜索	-0.05613438
-3.720428	搞	-0.05613437
-3.720428	搞清楚	-0.05613438
-3.720428	摄	-0.05613438
-3.720428	摄氏度	-0.05613438
-3.720428	摆放	-0.05613438
-3.720428	撞	-0.05613438
-3.720428	撞桥	-0.05613437
-3.421743	撤回	-0.05613438
-3.720428	撤离	-0.05613438
-3.720428	撤走	-0.05613437
-3.720428	擦碰	-0.05613437
-3.720428	攒	-0.05613437
-3.720428	攒够	-0.05613437
-3.577401	支付	-0.05613437
-3.421743	支持	-0.05613438
-3.069788	支撑	-0.09038454
-3.720428	支票	-0.05613438
-3.158687	收入	-0.05613438
-3.720428	收取	-0.05613438
-3.720428	收益	-0.05613438
-3.720428	收获	-0.05613438
-3.577401	收费	-0.05613438
-3.577401	收集	-0.05613438
-3.720428	改为	-0.05613438
-3.720428	改变	-0.05613437
-3.720428	改善生活	-0.05613437
-3.421743	改革	-0.05613438
-3.720428	放学	-0.05613438
-3.720428	放宽	-0.05613438
-3.720428	放缓	-0.05613438
-3.577401	政府	-0.05613438
-3.069788	政策	-0.09038453
-3.577401	政策措施	-0.05613438
-3.720428	故事	-0.05613438
-3.720428	故居	-0.05613437
-3.720428	效率	-0.05613437
-3.720428	敏感	-0.05613438
-3.720428	救世主	-0.05613438
-3.720428	救助	-0.05613438
-3.720428	救治	-0.05613438
-3.577401	教育	-0.05613438
-3.720428	数十所	-0.05613438
-3.720428	数周	-0.05613437
-3.577401	数据	-0.05613437
-3.720428	数月	-0.05613438
-3.720428	数百	-0.05613437
-3.577401	数量	-0.05613438
-3.720428	整个	-0.05613438
-3.577401	整体	-0.05613437
-3.720428	整改	-0.05613438
-3.720428	文	-0.05613438
-3.720428	文化	-0.05613437
-3.720428	文轩	-0.05613437
-3.720428	斗转星移	-0.05613438
-3.720428	斥责	-0.05613438
-3.720428	断崖	-0.05613438
-2.708862	新	-0.2602023
-3.720428	新一轮	-0.05613438
-3.720428	新世纪	-0.05613437
-3.720428	新低	-0.05613438
-3.720428	新华书店	-0.05613437
-3.577401	新增	-0.1682375
-3.720428	新婚夫妇	-0.05613438
-3.577401	新房	-0.05613438
-3.720428	新手	-0.05613437
-2.99603	新政	-0.08156545
-3.720428	新梅	-0.05613438
-3.720428	新款	-0.05613438
-3.720428	新篇章	-0.05613438
-3.270595	新股	-0.6779161
-3.720428	新货	-0.05613438
-3.158687	新闻	-0.05613438
-3.720428	新闻网	-0.05613437
-3.720428	新闻频道	-0.05613437
-3.720428	新鲜	-0.05613437
-3.720428	方便	-0.05613438
-3.069788	方式	-0.2641277
-3.720428	方案	-0.05613438
-3.158687	方面	-0.09038454
-3.720428	施压	-0.05613438
-3.720428	旅发委	-0.05613437
-3.720428	旅游	-0.05613438
-3.720428	旅行社	-0.05613438
-3.421743	无	-0.1275688
-3.720428	无人驾驶	-0.05613438
-3.720428	无所谓	-0.05613438
-3.720428	无故	-0.05613438
-3.720428	无效	-0.05613438
-3.720428	无比	-0.05613437
-3.720428	无法	-0.05613437
-3.720428	日	-0.05613438
-3.720428	日产	-0.05613437
-3.720428	日光	-0.05613438
-3.720428	日前	-0.05613438
-3.720428	日常	-0.05613438
-3.720428	日晕	-0.05613438
-3.069788	日本	-0.05613437
-3.720428	日本料理	-0.05613438
-3.720428	早前	-0.05613438
-2.785235	时	-0.3226012
-3.720428	时代	-0.05613438
-3.720428	时候	-0.05613438
-3.577401	时光	-0.05613437
-3.720428	时尚	-0.05613438
-3.720428	时尚生活	-0.05613437
-3.720428	时报讯	-0.05613437
-2.877967	时间	-0.09363639
-3.720428	昂纳	-0.05613437
-3.577401	昆凌	-0.05613438
-3.720428	明年	-0.05613438
-3.720428	明星	-0.05613437
-3.421743	明显	-0.05613437
-3.270595	明确	-0.1085788
-3.720428	明确要求	-0.05613438
-3.577401	星	-0.1682375
-3.720428	星巴克	-0.05613437
-3.720428	星座	-0.05613437
-3.720428	星系	-0.05613437
-3.720428	昨天	-0.05613438
-2.291788	是	-0.08214138
-3.720428	是从	-0.05613438
-3.577401	是否	-0.05613438
-3.720428	显得	-0.05613438
-3.720428	显效	-0.05613438
-3.720428	显现出	-0.05613437
-3.270595	显示	-0.6779161
-3.720428	显而易见	-0.05613438
-3.720428	晋升	-0.05613438
-3.720428	晒	-0.05613438
-3.720428	晚	-0.05613438
-3.720428	晚八时许	-0.05613438
-3.270595	普及	-0.1085788
-3.720428	普遍	-0.05613437
-3.720428	普里	-0.05613438
-3.720428	景区	-0.05613438
-3.577401	智能	-0.05613438
-3.720428	智能手机	-0.05613437
-3.720428	智能机	-0.05613438
-3.720428	暂时	-0.05613437
-3.577401	暂行办法	-0.05613437
-3.720428	曝光	-0.05613437
-3.720428	曲线	-0.05613437
-2.829131	更	-0.4589215
-3.720428	更为	-0.05613437
-3.577401	更加	-0.05613438
-3.577401	更大	-0.05613437
-3.577401	更好	-0.1682375
-3.720428	更长	-0.05613438
-3.270595	最	-0.05613438
-3.720428	最亮	-0.05613438
-3.720428	最初	-0.05613437
-3.720428	最后	-0.05613438
-3.720428	最多	-0.05613438
-3.577401	最大	-0.05613438
-3.720428	最大化	-0.05613438
-3.720428	最早	-0.05613437
-3.720428	最晚	-0.05613437
-3.577401	最终	-0.05613438
-3.421743	最近	-0.05613437
-3.720428	最高	-0.05613438
-3.720428	月	-0.05613437
-2.452071	有	-0.1559445
-3.577401	有个	-0.05613438
-3.720428	有些	-0.05613438
-3.720428	有人	-0.05613438
-3.720428	有关	-0.05613437
-3.577401	有利于	-0.05613438
-3.720428	有助于	-0.05613438
-3.720428	有好有坏	-0.05613438
-3.720428	有所增加	-0.05613438
-3.577401	有效	-0.05613437
-3.720428	有效性	-0.05613438
-3.720428	朋友	-0.05613437
-3.577401	服务	-0.05613437
-3.720428	服务员	-0.05613438
-3.720428	朝阳区	-0.05613438
-3.720428	期	-0.05613438
-3.720428	期限	-0.05613437
-3.577401	未	-0.05613438
-2.99603	未来	-0.09363639
-3.421743	未能	-0.05613437
-3.720428	本人	-0.05613437
-3.720428	本报讯	-0.05613437
-3.720428	本月	-0.05613437
-3.720428	本次	-0.05613438
-3.720428	本质	-0.05613438
-3.720428	本身	-0.05613438
-3.720428	本项	-0.05613438
-3.421743	机制	-0.1085788
-3.720428	机床设备	-0.05613437
-3.421743	机构	-0.05613437
-3.720428	材料	-0.05613438
-3.577401	条件	-0.05613437
-3.720428	条款	-0.05613438
-3.069788	来	-0.05613438
-3.577401	来源	-0.05613438
-3.577401	来看	-0.05613438
-3.577401	来自	-0.05613438
-3.577401	来说	-0.1682375
-3.720428	杨澄宇	-0.05613437
-3.577401	杭州	-0.05613438
-3.720428	极地	-0.05613437
-3.577401	某	-0.05613438
-3.720428	某一	-0.05613437
-3.577401	某某	-0.05613438
-3.720428	查实	-0.05613438
-3.720428	查明	-0.05613437
-3.720428	标准版	-0.05613437
-3.158687	标志	-0.05613438
-3.720428	标配	-0.05613437
-3.720428	栏目	-0.05613438
-3.421743	校园	-0.05613437
-3.720428	校际	-0.05613438
-3.720428	校际比赛	-0.05613438
-3.158687	根据	-0.05613438
-3.720428	根本	-0.05613437
-3.720428	桂湖	-0.05613438
-3.577401	档	-0.1682375
-3.720428	档案	-0.05613438
-3.577401	桥	-0.1275689
-3.720428	桥桥	-0.05613438
-3.720428	桥段	-0.05613438
-3.720428	梳理	-0.05613438
-3.577401	检查	-0.05613437
-3.577401	楼	-0.05613437
-3.720428	楼事	-0.05613437
-3.720428	楼前	-0.05613438
-3.069788	楼市	-0.05613438
-3.158687	楼盘	-0.05613438
-3.577401	概念	-0.05613437
-3.720428	概念股	-0.05613437
-3.720428	概念车	-0.05613438
-3.577401	樊振东	-0.05613438
-3.720428	模仿	-0.05613438
-3.421743	模式	-0.05613438
-3.720428	欢迎	-0.05613437
-3.720428	欧洲	-0.05613438
-3.720428	歌声	-0.05613438
-3.720428	歌曲	-0.05613438
-3.421743	正在	-0.05613437
-3.270595	正式	-0.05613438
-3.577401	正是	-0.05613438
-3.720428	此事	-0.05613438
-3.270595	此前	-0.05613438
-3.577401	此次	-0.05613438
-3.720428	步	-0.05613438
-3.720428	武侯	-0.05613438
-3.577401	武侯祠	-0.05613438
-3.720428	武汉	-0.05613438
-3.720428	武隆	-0.05613437
-3.720428	死亡	-0.05613438
-3.720428	死者	-0.05613438
-3.720428	残疾人	-0.05613438
-3.720428	殴打	-0.05613438
-3.720428	段	-0.05613437
-3.720428	段时间	-0.05613438
-3.720428	母女俩	-0.05613438
-3.720428	每	-0.05613438
-3.577401	每个	-0.05613438
-3.720428	每日	-0.05613437
-3.720428	每栋	-0.05613437
-3.577401	比	-0.05613438
-3.720428	比云	-0.05613438
-3.720428	比例	-0.05613438
-3.720428	比八	-0.05613438
-3.421743	比利时	-0.05613437
-3.720428	比如	-0.05613438
-3.069788	比赛	-0.09038453
-3.720428	比较	-0.05613437
-3.577401	民众	-0.05613437
-3.577401	民警	-0.05613437
-3.720428	民间	-0.05613437
-3.720428	水平	-0.05613438
-3.720428	水族馆	-0.05613438
-3.421743	水泥	-0.05613437
-3.577401	水谷	-0.1682375
-3.720428	永远	-0.05613437
-3.577401	求婚	-0.1682375
-3.720428	汉斯	-0.05613437
-2.708862	汽车	-0.1447905
-3.720428	汽车业	-0.05613438
-3.720428	沃尔玛	-0.05613437
-3.720428	沉着	-0.05613437
-3.720428	沙子	-0.05613437
-3.270595	没	-0.05613438
-3.720428	没带	-0.05613437
-2.745372	没有	-0.05613437
-3.720428	治疗	-0.05613438
-3.577401	法国	-0.1682375
-3.720428	法庭	-0.05613438
-3.720428	法律	-0.05613437
-3.720428	法规	-0.05613437
-2.99603	泡沫	-0.08532315
-3.720428	波为	-0.05613437
-3.720428	注入	-0.05613438
-3.720428	注意力	-0.05613437
-3.720428	注重	-0.05613437
-3.720428	泰斗	-0.05613438
-3.720428	洛夫	-0.05613437
-3.720428	活动	-0.05613438
-3.720428	活泼	-0.05613438
-3.720428	派出	-0.05613437
-3.577401	派出所	-0.1682375
-3.577401	派发	-0.05613438
-3.720428	派对	-0.05613438
-3.720428	派生	-0.05613438
-3.720428	流入	-0.05613437
-3.720428	流出	-0.05613438
-3.577401	流动性	-0.05613437
-3.720428	流失	-0.05613438
-3.720428	流着泪	-0.05613438
-3.720428	浑水	-0.05613438
-3.720428	浓烈	-0.05613438
-3.720428	海宁	-0.05613437
-3.720428	海报设计	-0.05613437
-3.720428	海昌	-0.05613437
-3.720428	海洋	-0.05613438
-3.577401	海阔天空	-0.1682375
-3.720428	海鲜	-0.05613437
-3.421743	消息	-0.1275688
-3.577401	消耗	-0.05613438
-3.720428	消防系统	-0.05613438
-3.720428	消防车	-0.05613437
-3.720428	涉事	-0.05613437
-3.720428	涉嫌	-0.05613437
-3.720428	涉酒	-0.05613437
-3.720428	涌镇	-0.05613437
-3.720428	涨价	-0.05613438
-3.720428	涨幅	-0.05613437
-3.720428	淘汰赛	-0.05613438
-3.720428	淮海店	-0.05613438
-3.720428	深入	-0.05613438
-3.720428	深圳	-0.05613437
-3.720428	混合	-0.05613438
-3.720428	添堵	-0.05613438
-3.577401	清明	-0.05613438
-3.720428	清明节	-0.05613437
-3.720428	清水	-0.05613437
-3.720428	清洁	-0.05613437
-3.577401	清点	-0.05613437
-3.720428	清障车	-0.05613437
-3.720428	清香	-0.05613438
-3.720428	渔具	-0.05613437
-3.720428	渠道	-0.05613438
-3.577401	温度	-0.05613437
-3.270595	游客	-0.05613438
-3.720428	源	-0.05613438
-3.720428	溺水	-0.05613438
-3.720428	滑板鞋	-0.05613438
-3.720428	满意	-0.05613438
-3.720428	满足	-0.05613438
-3.720428	滨江	-0.05613438
-3.720428	漕运	-0.05613438
-3.720428	潍坊	-0.05613438
-3.720428	澄清	-0.05613438
-3.720428	激光	-0.05613438
-3.720428	激励	-0.05613438
-3.720428	激情	-0.05613438
-3.720428	激烈	-0.05613437
-3.720428	火	-0.05613437
-3.720428	火热	-0.05613438
-3.158687	火锅	-0.05613438
-3.720428	火鸟	-0.05613437
-3.720428	灵	-0.05613437
-3.720428	灵书妙	-0.05613437
-3.720428	灵医	-0.05613438
-3.720428	灵堂	-0.05613438
-3.720428	灵山	-0.05613438
-3.720428	灵异	-0.05613438
-3.720428	灵感	-0.05613438
-3.720428	灵显	-0.05613438
-3.720428	灵舍	-0.05613438
-3.720428	炒作	-0.05613438
-3.720428	炒股	-0.05613437
-3.720428	炮轰	-0.05613438
-3.720428	炷	-0.05613437
-3.720428	点	-0.05613437
-3.720428	点燃	-0.05613438
-3.720428	点赞	-0.05613438
-3.720428	热潮	-0.05613438
-3.720428	热点新闻	-0.05613438
-3.720428	热门	-0.05613437
-3.720428	然而	-0.05613438
-3.720428	照后	-0.05613437
-3.158687	照片	-0.09038452
-3.720428	照顾	-0.05613438
-3.720428	煮	-0.05613437
-3.720428	熟知	-0.05613438
-3.720428	燃香	-0.05613437
-3.720428	爆堵	-0.05613438
-3.720428	爆炸	-0.05613438
-3.421743	爱	-0.09757105
-3.720428	爱情	-0.05613438
-3.577401	爱情路	-0.1682375
-3.577401	父亲	-0.05613437
-3.720428	父母	-0.05613437
-3.577401	爸爸	-0.1682375
-3.577401	版	-0.1682375
-3.720428	牌照	-0.05613437
-3.720428	牛排	-0.05613437
-3.720428	物	-0.05613438
-3.720428	物业	-0.05613438
-3.720428	物业公司	-0.05613438
-3.720428	物体	-0.05613438
-3.720428	特	-0.05613438
-3.720428	特别	-0.05613437
-3.720428	特定	-0.05613438
-3.577401	特莱斯	-0.05613437
-3.720428	犀蒲	-0.05613437
-3.720428	独家	-0.05613438
-3.720428	猛拉	-0.05613438
-3.720428	猜疑	-0.05613438
-3.720428	猝死	-0.05613437
-3.577401	猴子	-0.05613438
-3.720428	率先	-0.05613437
-3.720428	王	-0.05613438
-3.720428	玩水	-0.05613438
-3.720428	环境	-0.05613438
-3.720428	环比	-0.05613438
-2.932999	现在	-0.0936364
-3.069788	现场	-0.116616
-3.720428	现已	-0.05613437
-3.720428	现象	-0.05613438
-3.720428	现超美	-0.05613437
-3.577401	现金	-0.05613438
-3.577401	珠宝店	-0.05613438
-3.720428	珠帘	-0.05613438
-3.720428	球台	-0.05613438
-3.577401	球员	-0.05613438
-3.720428	球类	-0.05613438
-3.720428	球路	-0.05613438
-3.720428	球迷	-0.05613438
-3.720428	理念	-0.05613438
-3.720428	理想	-0.05613437
-3.720428	理由	-0.05613437
-3.720428	琴台	-0.05613438
-3.720428	瑞福园	-0.05613437
-3.720428	甚至	-0.05613437
-3.421743	生产	-0.05613438
-3.720428	生产线	-0.05613438
-3.720428	生活	-0.05613438
-3.270595	用	-0.05613438
-3.720428	用于	-0.05613438
-3.720428	用地	-0.05613437
-3.158687	用户	-0.05613438
-3.720428	用途	-0.05613438
-2.99603	由	-0.08532315
-3.720428	由于	-0.05613438
-3.421743	申请	-0.05613437
-3.720428	申请材料	-0.05613437
-3.720428	电动	-0.05613437
-3.720428	电动车	-0.05613438
-3.720428	电子	-0.05613438
-3.720428	电池	-0.05613438
-3.720428	电脑	-0.05613437
-3.720428	电脑城	-0.05613438
-3.720428	电视台	-0.05613438
-3.720428	电话	-0.05613438
-3.577401	电量	-0.1682375
-3.720428	男主角	-0.05613437
-2.877967	男子	-0.05613438
-3.720428	男孩	-0.05613438
-3.720428	畅所欲言	-0.05613438
-3.720428	界定	-0.05613438
-3.720428	番	-0.05613437
-3.720428	番禺	-0.05613437
-3.720428	疑因	-0.05613438
-3.720428	病孙	-0.05613437
-3.720428	痴迷	-0.05613438
-3.720428	登陆	-0.05613438
-3.720428	白衣	-0.05613438
-3.720428	百分之一	-0.05613437
-3.720428	百分之五十	-0.05613437
-3.577401	百分之八十	-0.05613438
-3.720428	百分之六十	-0.05613437
-3.720428	百盛	-0.05613437
-3.720428	百货	-0.05613437
-1.391751	的	-0.1191554
-3.720428	皇城	-0.05613437
-3.720428	皮肤	-0.05613437
-3.720428	皮革	-0.05613438
-3.720428	益州	-0.05613438
-3.720428	监事	-0.05613438
-3.720428	监测数据	-0.05613438
-3.270595	监管	-0.08532315
-3.421743	盗用	-0.05613437
-3.720428	盛宴	-0.05613438
-3.720428	盛源	-0.05613437
-2.932999	目前	-0.05613438
-3.720428	目的	-0.05613438
-3.270595	直接	-0.1085788
-3.720428	直言	-0.05613438
-3.720428	相互	-0.05613438
-3.577401	相似	-0.1682375
-3.720428	相信	-0.05613437
-2.99603	相关	-0.05613438
-3.720428	相关性	-0.05613438
-3.421743	相对	-0.05613437
-3.720428	相应	-0.05613438
-3.720428	相当于	-0.05613438
-3.720428	相比	-0.05613438
-3.720428	相隔	-0.05613438
-3.421743	看	-0.05613438
-3.720428	看上去	-0.05613437
-3.270595	看到	-0.05613438
-3.720428	看待	-0.05613438
-3.720428	看房	-0.05613438
-3.577401	看来	-0.05613437
-3.720428	看楼	-0.05613438
-3.720428	看起来	-0.05613438
-3.720428	真	-0.05613438
-3.720428	真的	-0.05613438
-3.720428	眯着	-0.05613437
-3.720428	眼	-0.05613438
-3.720428	眼下	-0.05613438
-3.720428	眼帘	-0.05613438
-3.720428	眼镜	-0.05613438
-2.99603	着	-0.05613438
-3.577401	督促	-0.05613437
-3.270595	督察	-0.05613437
-3.577401	督察组	-0.05613437
-3.720428	督查	-0.05613438
-3.720428	知名度	-0.05613438
-3.577401	码头	-0.05613438
-3.158687	砂板	-0.05613438
-3.577401	砍	-0.05613438
-3.720428	砍伤	-0.05613438
-3.720428	砍倒	-0.05613438
-3.720428	研	-0.05613437
-3.577401	研究	-0.05613438
-3.720428	研究者	-0.05613438
-3.720428	破	-0.05613438
-3.577401	破灭	-0.05613437
-3.720428	硅谷	-0.05613438
-3.720428	硕士学位	-0.05613438
-3.720428	硬塞	-0.05613438
-3.270595	硬币	-0.05613437
-3.720428	确	-0.05613438
-3.720428	确保	-0.05613438
-3.720428	确定	-0.05613438
-3.421743	社会	-0.05613437
-3.720428	社会各界	-0.05613438
-3.720428	神奇	-0.05613438
-3.720428	神秘	-0.05613438
-3.720428	神箭	-0.05613438
-3.720428	祥和	-0.05613438
-3.720428	福建	-0.05613437
-3.720428	离车	-0.05613437
-3.720428	私家车	-0.05613438
-3.720428	种子	-0.05613438
-3.720428	科幻	-0.05613437
-3.720428	科幻小说	-0.05613438
-3.577401	科技	-0.05613437
-3.720428	科技人才	-0.05613437
-3.720428	科技界	-0.05613438
-3.720428	租凭	-0.05613437
-3.720428	积极	-0.05613438
-3.421743	称	-0.05613437
-3.720428	移动	-0.05613437
-3.720428	移开	-0.05613438
-3.577401	程度	-0.05613438
-3.720428	税收	-0.05613438
-3.720428	税收政策	-0.05613438
-3.577401	稳稳	-0.1682375
-3.577401	究竟	-0.05613438
-3.577401	穿戴	-0.1682375
-3.720428	突出贡献	-0.05613438
-3.720428	突然	-0.05613437
-3.720428	立案	-0.05613437
-3.720428	立马	-0.05613438
-3.720428	站	-0.05613438
-3.577401	竞技	-0.05613438
-3.720428	竞赛	-0.05613438
-3.720428	笑	-0.05613438
-3.577401	符号	-0.05613437
-3.577401	第一	-0.05613438
-3.720428	第一阶段	-0.05613438
-3.720428	第三十九条	-0.05613438
-3.577401	第三局	-0.05613437
-3.720428	第二个	-0.05613438
-3.720428	第二十三条	-0.05613438
-3.720428	第二十五条	-0.05613438
-3.720428	第二座	-0.05613438
-3.720428	第五	-0.05613438
-2.514511	等	-0.1554612
-3.720428	等到	-0.05613438
-3.720428	筹备	-0.05613437
-3.720428	筹款	-0.05613437
-3.720428	签名	-0.05613438
-3.720428	签约	-0.05613437
-3.720428	简化	-0.05613438
-3.720428	简单	-0.05613438
-2.99603	管理	-0.1842985
-3.720428	篮球	-0.05613438
-3.720428	籍	-0.05613438
-3.720428	米	-0.05613437
-3.577401	类似	-0.05613437
-3.720428	精卫填海	-0.05613438
-3.720428	精武	-0.05613438
-3.720428	精武门	-0.05613438
-3.577401	精灵	-0.05613437
-3.577401	精神	-0.05613437
-3.720428	精神病	-0.05613437
-3.720428	系列	-0.05613437
-3.577401	系统	-0.05613438
-3.720428	素有	-0.05613438
-3.720428	索尼	-0.05613438
-3.720428	紫光	-0.05613438
-3.720428	紫竹	-0.05613437
-3.720428	累计	-0.05613438
-3.720428	繁华	-0.05613438
-3.720428	纠纷	-0.05613438
-3.720428	纠结	-0.05613438
-3.720428	红	-0.05613438
-3.577401	红利	-0.05613438
-3.720428	红星路	-0.05613437
-3.577401	红豆	-0.1682375
-3.720428	约	-0.05613438
-3.421743	约束	-0.1275688
-3.720428	级	-0.05613437
-3.720428	纪念馆	-0.05613438
-3.720428	纷纷	-0.05613437
-2.932999	组委会	-0.05613438
-3.720428	组成	-0.05613437
-3.720428	组织	-0.05613437
-3.720428	细化	-0.05613438
-3.577401	终于	-0.05613438
-3.720428	终结	-0.05613438
-3.720428	绍兴	-0.05613438
-3.720428	经常性	-0.05613437
-3.720428	经济	-0.05613438
-3.421743	经济体	-0.05613437
-3.720428	经纬	-0.05613438
-3.270595	经过	-0.05613438
-3.421743	经验	-0.1275688
-3.158687	结合	-0.05613437
-3.577401	结束	-0.1682375
-3.720428	结构	-0.05613437
-3.720428	结果	-0.05613438
-2.877967	给	-0.07866511
-3.720428	给钱	-0.05613438
-3.720428	绝大多数	-0.05613437
-3.720428	绝对	-0.05613438
-2.99603	统一	-0.05613437
-3.720428	统筹规划	-0.05613438
-3.720428	统计	-0.05613438
-3.720428	继二零	-0.05613437
-3.421743	继续	-0.05613437
-2.99603	续航	-0.05613438
-3.720428	维修	-0.05613438
-3.577401	维护	-0.05613438
-3.720428	维持	-0.05613437
-3.720428	缓解	-0.05613438
-3.720428	缩减	-0.05613438
-3.720428	缺少	-0.05613437
-3.720428	网	-0.05613437
-3.270595	网友	-0.05613438
-3.720428	网友会	-0.05613437
-3.720428	网约车	-0.05613438
-3.421743	网络	-0.1275688
-3.720428	罚款	-0.05613437
-3.720428	美嘉森奥	-0.05613438
-3.577401	美国	-0.05613438
-3.720428	美国市场	-0.05613438
-3.720428	美的	-0.05613437
-3.158687	群体	-0.09757104
-3.270595	老	-0.1085788
-3.720428	老三	-0.05613437
-3.720428	老妈	-0.05613437
-3.577401	老婆	-0.05613438
-3.720428	老洋房	-0.05613438
-3.421743	考虑	-0.05613437
-3.720428	考试	-0.05613438
-3.720428	者	-0.05613437
-3.421743	而	-0.05613437
-3.720428	而且	-0.05613438
-3.720428	而云	-0.05613438
-3.720428	而是	-0.05613438
-3.720428	耗电	-0.05613437
-3.720428	耗电量	-0.05613438
-3.720428	耗费	-0.05613437
-3.720428	耳朵	-0.05613438
-3.720428	职业道德	-0.05613438
-3.720428	职务	-0.05613438
-3.720428	职能	-0.05613438
-3.720428	联合	-0.05613437
-3.720428	联盟	-0.05613437
-3.720428	联系	-0.05613438
-3.720428	联络	-0.05613438
-3.720428	聚焦	-0.05613438
-3.720428	肌肉	-0.05613438
-3.720428	肌肉发达	-0.05613437
-3.720428	肚子	-0.05613438
-3.720428	肚皮	-0.05613438
-3.577401	股东	-0.05613437
-3.720428	股票	-0.05613438
-3.720428	股票走势	-0.05613438
-3.720428	肺部	-0.05613438
-3.720428	胜利	-0.05613438
-3.720428	胸部	-0.05613437
-2.99603	能	-0.05613438
-3.720428	能力	-0.05613437
-3.577401	能够	-0.05613438
-3.720428	能源	-0.05613438
-3.720428	脚步	-0.05613438
-3.720428	脸书	-0.05613438
-3.720428	自	-0.05613438
-3.720428	自主	-0.05613438
-3.720428	自住	-0.05613438
-3.270595	自动	-0.677916
-3.720428	自可	-0.05613438
-3.720428	自家	-0.05613438
-3.158687	自己	-0.09757105
-3.720428	自律	-0.05613437
-3.720428	自我	-0.05613438
-3.720428	自我调节	-0.05613437
-3.720428	自断	-0.05613437
-3.720428	自此	-0.05613437
-3.720428	自然	-0.05613438
-3.577401	自燃	-0.1275688
-3.720428	自由自在	-0.05613438
-3.720428	自行	-0.05613438
-3.720428	自贡	-0.05613437
-3.069788	自身	-0.05613438
-3.720428	自驾车	-0.05613438
-3.720428	臭名远扬	-0.05613438
-3.577401	至	-0.05613438
-3.720428	至今	-0.05613438
-3.720428	至少	-0.05613437
-3.421743	致	-0.1275688
-3.720428	致一死疑	-0.05613438
-3.720428	致电	-0.05613438
-3.720428	舆论	-0.05613438
-3.720428	舆论压力	-0.05613438
-3.720428	舒友	-0.05613437
-3.720428	舰航	-0.05613437
-3.720428	芯片	-0.05613438
-3.720428	花上	-0.05613437
-3.421743	花园	-0.1275688
-3.720428	苛刻	-0.05613438
-3.720428	英国	-0.05613437
-3.270595	苹果	-0.05613438
-3.720428	茂名	-0.05613438
-3.577401	范围	-0.05613438
-3.720428	范晓萱	-0.05613437
-3.720428	茶	-0.05613437
-3.720428	草案	-0.05613437
-3.720428	荣昌	-0.05613438
-3.577401	荷塘月色	-0.1682375
-3.720428	获刑	-0.05613437
-3.421743	获得	-0.05613437
-3.720428	获得成功	-0.05613438
-3.720428	获悉	-0.05613438
-3.720428	菜	-0.05613437
-3.577401	萎缩	-0.05613437
-3.720428	营业	-0.05613437
-3.720428	营业税	-0.05613437
-3.720428	萨尔	-0.05613438
-3.720428	落地	-0.05613438
-3.270595	落实	-0.05613437
-3.720428	落户	-0.05613437
-3.720428	董事	-0.05613437
-3.720428	蔡康永	-0.05613437
-3.720428	薛珺	-0.05613438
-3.720428	藏品	-0.05613437
-3.577401	藏獒	-0.05613438
-3.720428	虹桥	-0.05613437
-3.720428	虽	-0.05613438
-3.720428	虽然	-0.05613438
-3.720428	蜀	-0.05613437
-3.720428	蜀九香	-0.05613437
-3.720428	蜀山	-0.05613437
-3.720428	血案	-0.05613438
-2.675185	行业	-0.1210584
-3.720428	行为	-0.05613438
-3.720428	行为规范	-0.05613437
-3.720428	行列	-0.05613438
-3.421743	行政	-0.5529774
-3.720428	行政许可	-0.05613438
-3.720428	行程	-0.05613438
-3.720428	衣袖	-0.05613438
-3.720428	补上	-0.05613437
-3.577401	补助	-0.05613437
-3.720428	表将	-0.05613437
-3.577401	表态	-0.1682375
-3.270595	表示	-0.3669133
-3.720428	表示感谢	-0.05613438
-3.720428	表配	-0.05613438
-2.492685	被	-0.07366674
-3.577401	袭击	-0.05613438
-3.720428	装入	-0.05613437
-3.720428	装饰	-0.05613438
-3.720428	西南	-0.05613437
-3.720428	西堤	-0.05613437
-3.720428	西航	-0.05613437
-3.720428	西路	-0.05613437
-3.577401	西门	-0.05613437
-2.785235	要	-0.05613438
-3.720428	要倍养	-0.05613437
-3.158687	要求	-0.2370728
-3.720428	要素	-0.05613438
-3.720428	覆盖	-0.05613438
-3.720428	见	-0.05613438
-3.720428	见习	-0.05613437
-3.720428	观众	-0.05613438
-3.720428	观察	-0.05613438
-3.577401	规划	-0.05613437
-3.720428	规则	-0.05613438
-3.270595	规定	-0.3669133
-3.577401	规范	-0.05613437
-3.720428	视觉	-0.05613438
-3.720428	视频	-0.05613438
-3.577401	觉得	-0.05613438
-3.720428	角度	-0.05613437
-3.720428	角色	-0.05613438
-3.577401	解决	-0.05613438
-3.720428	解决方案	-0.05613438
-3.720428	解决问题	-0.05613438
-3.720428	解套	-0.05613438
-3.720428	解散	-0.05613438
-3.720428	解析	-0.05613438
-3.720428	言语	-0.05613437
-3.720428	警察	-0.05613437
-3.421743	警方	-0.05613438
-2.99603	计划	-0.3059541
-3.720428	计提	-0.05613438
-3.720428	计生	-0.05613437
-3.270595	认为	-0.05613437
-3.720428	认真	-0.05613438
-3.421743	让	-0.05613437
-3.720428	讯	-0.05613438
-3.577401	记录	-0.05613437
-3.158687	记者	-0.05613438
-3.577401	记者会	-0.05613438
-3.720428	讲	-0.05613438
-3.720428	讲究	-0.05613438
-3.720428	讲述	-0.05613437
-3.577401	许	-0.1682375
-3.720428	许多	-0.05613438
-3.720428	设	-0.05613438
-3.720428	设为	-0.05613438
-3.270595	设备	-0.1454321
-3.720428	设定	-0.05613438
-3.720428	设想	-0.05613438
-3.720428	设立	-0.05613437
-2.932999	设计	-0.08156545
-3.720428	设计师	-0.05613438
-3.720428	设计界	-0.05613437
-3.720428	证	-0.05613438
-3.720428	证券	-0.05613438
-3.720428	证券化	-0.05613438
-3.577401	证监会	-0.05613438
-3.720428	试探	-0.05613438
-3.720428	试点	-0.05613437
-3.720428	话题	-0.05613437
-3.720428	诡异	-0.05613438
-3.158687	该	-0.05613438
-3.720428	该校	-0.05613438
-3.720428	该法	-0.05613437
-3.720428	详细	-0.05613438
-3.270595	说	-0.05613438
-3.577401	说明	-0.05613437
-3.720428	读卖新闻	-0.05613437
-3.720428	诽谤	-0.05613437
-3.720428	谁	-0.05613438
-3.720428	调	-0.05613438
-3.720428	调动	-0.05613437
-3.270595	调控	-0.05613438
-3.577401	调整	-0.05613438
-3.270595	调查	-0.1085788
-3.720428	调查组	-0.05613438
-3.720428	调节	-0.05613438
-3.720428	谎言	-0.05613438
-3.720428	谢罪	-0.05613438
-3.720428	谢记	-0.05613438
-3.577401	负责	-0.05613438
-3.720428	负责人	-0.05613438
-3.720428	贡献	-0.05613438
-3.720428	财产	-0.05613438
-3.720428	财政	-0.05613437
-3.577401	责任重大	-0.1682375
-3.720428	账户	-0.05613437
-3.720428	货币政策	-0.05613438
-3.577401	货车	-0.05613438
-3.270595	质疑	-0.05613438
-3.577401	购买	-0.05613438
-3.577401	购买力	-0.1275688
-3.421743	购房	-0.1275688
-3.720428	购房者	-0.05613438
-3.577401	购物	-0.05613438
-3.720428	贯彻	-0.05613438
-3.720428	贵妃醉酒	-0.05613438
-3.720428	贷款	-0.05613437
-3.720428	费	-0.05613437
-3.720428	费用	-0.05613438
-3.720428	资产	-0.05613438
-3.577401	资本	-0.05613438
-3.720428	资本论	-0.05613438
-3.577401	资源	-0.05613437
-3.577401	赔	-0.05613438
-3.577401	赚钱	-0.05613437
-3.421743	赛事	-0.05613437
-3.720428	赛场	-0.05613438
-3.720428	赢得	-0.05613437
-3.720428	赫夫	-0.05613438
-3.421743	走	-0.05613438
-3.577401	走失	-0.05613437
-3.720428	走访	-0.05613438
-3.720428	走进	-0.05613438
-3.720428	赵吉翔	-0.05613437
-3.720428	赶到	-0.05613438
-3.720428	赶往	-0.05613438
-3.720428	赶来	-0.05613438
-3.577401	起	-0.05613438
-3.720428	起来	-0.05613438
-3.720428	起火	-0.05613438
-3.720428	起点	-0.05613438
-3.720428	起草	-0.05613437
-3.577401	起诉	-0.05613438
-3.720428	超	-0.05613437
-3.720428	超市	-0.05613438
-3.720428	超生	-0.05613437
-3.421743	超过	-0.05613438
-3.577401	越来越	-0.05613438
-3.720428	越高越	-0.05613438
-3.720428	趋势	-0.05613438
-3.720428	趋步	-0.05613438
-3.720428	趣味	-0.05613438
-3.720428	足以	-0.05613438
-3.720428	足够	-0.05613438
-3.720428	足额	-0.05613437
-3.720428	趴	-0.05613437
-3.720428	跃入	-0.05613437
-3.720428	距离	-0.05613438
-3.720428	跟	-0.05613438
-3.720428	跨国	-0.05613437
-3.720428	跨界	-0.05613438
-3.421743	路	-0.05613438
-3.720428	路人扎伤	-0.05613438
-3.720428	路口	-0.05613438
-3.577401	路店	-0.1682375
-3.720428	身上	-0.05613438
-3.720428	身体状况	-0.05613437
-3.720428	身穿	-0.05613438
-3.720428	身躯	-0.05613438
-3.720428	躲雨	-0.05613438
-3.577401	车	-0.05613438
-3.720428	车库	-0.05613437
-3.577401	车辆	-0.05613438
-3.577401	车道	-0.05613438
-3.720428	转向	-0.05613438
-3.720428	转换	-0.05613438
-3.158687	转移	-0.7748261
-3.720428	轮廓	-0.05613437
-3.720428	轰	-0.05613437
-3.577401	轿车	-0.1682375
-3.720428	较	-0.05613438
-3.720428	较大	-0.05613438
-3.720428	较量	-0.05613438
-3.720428	辅助	-0.05613438
-3.720428	边际	-0.05613438
-3.720428	达	-0.05613437
-3.270595	达到	-0.05613437
-3.720428	达成	-0.05613437
-3.720428	达成协议	-0.05613438
-3.720428	迁至	-0.05613438
-3.720428	迄今	-0.05613438
-3.577401	迅速	-0.05613438
-3.577401	过	-0.05613437
-3.720428	过半	-0.05613438
-3.720428	过去	-0.05613438
-3.720428	过生日	-0.05613438
-3.577401	过程	-0.05613437
-3.720428	迎来	-0.05613437
-3.720428	运作	-0.05613438
-3.270595	运动	-0.09038454
-3.720428	运动员	-0.05613438
-3.720428	运用	-0.05613438
-3.720428	运算	-0.05613438
-3.720428	运营	-0.05613438
-3.720428	运行	-0.05613438
-3.720428	近	-0.05613438
-3.720428	近年来	-0.05613438
-3.720428	近日	-0.05613438
-3.720428	近期	-0.05613437
-3.720428	近来	-0.05613437
-3.720428	近照	-0.05613438
-3.720428	返还	-0.05613438
-2.587459	还	-0.06666128
-3.158687	还是	-0.09038453
-3.577401	还有	-0.05613438
-3.720428	还要	-0.05613438
-3.069788	这	-0.05613437
-3.720428	这一	-0.05613438
-2.745372	这个	-0.2297576
-3.577401	这些	-0.05613438
-3.577401	这位	-0.05613438
-3.720428	这场	-0.05613437
-3.720428	这家	-0.05613438
-3.577401	这届	-0.05613438
-3.577401	这幢	-0.1682375
-3.720428	这座	-0.05613438
-3.720428	这才	-0.05613437
-3.720428	这方面	-0.05613438
-3.270595	这样	-0.284458
-3.720428	这次	-0.05613438
-3.270595	这种	-0.05613437
-3.270595	这类	-0.3669133
-3.720428	这群人	-0.05613437
-3.577401	这项	-0.05613438
-3.270595	进一步	-0.05613438
-3.421743	进入	-0.05613438
-3.421743	进校园	-0.05613437
-2.829131	进行	-0.05613438
-3.720428	远东	-0.05613437
-3.577401	远远	-0.05613438
-3.720428	违法	-0.05613437
-3.720428	违规行为	-0.05613438
-3.720428	连	-0.05613437
-3.720428	迟到	-0.05613438
-3.720428	迹象	-0.05613438
-3.720428	追尾	-0.05613438
-3.720428	追踪	-0.05613438
-3.720428	追逃	-0.05613438
-3.720428	追随	-0.05613438
-3.421743	退出	-0.05613437
-3.720428	退市	-0.05613438
-3.577401	送	-0.05613438
-3.720428	送医	-0.05613438
-3.720428	送往	-0.05613438
-3.720428	适应性	-0.05613438
-3.720428	适当	-0.05613438
-3.720428	适时	-0.05613437
-3.720428	适用	-0.05613438
-3.720428	逃走	-0.05613438
-3.720428	逃跑	-0.05613437
-3.720428	逆差	-0.05613438
-3.577401	逆战	-0.1682375
-3.720428	逆行	-0.05613437
-3.720428	选定	-0.05613437
-3.421743	选手	-0.05613438
-3.720428	选拔	-0.05613438
-3.270595	选择	-0.05613437
-3.720428	透明	-0.05613437
-3.720428	透明性	-0.05613438
-3.270595	透露	-0.05613437
-3.720428	逐渐	-0.05613437
-3.720428	递交	-0.05613438
-3.720428	途中	-0.05613438
-3.720428	通信	-0.05613438
-3.720428	通气会	-0.05613438
-3.720428	通用汽车	-0.05613438
-3.421743	通过	-0.05613437
-3.720428	逛花博	-0.05613438
-3.577401	造成	-0.05613437
-3.720428	造星	-0.05613438
-3.720428	遇到	-0.05613438
-3.720428	道	-0.05613438
-3.577401	道路	-0.05613438
-3.421743	遭	-0.05613438
-3.720428	遴选	-0.05613438
-3.720428	避免	-0.05613437
-3.720428	那	-0.05613438
-3.270595	那么	-0.05613438
-3.720428	那时	-0.05613438
-3.720428	那样	-0.05613438
-3.069788	部分	-0.05613438
-3.158687	部门	-0.05613438
-2.537492	都	-0.1219825
-3.720428	都江堰	-0.05613437
-3.577401	配备	-0.05613438
-3.720428	配套	-0.05613437
-3.158687	酒吧	-0.05613438
-3.720428	酒吧街	-0.05613437
-3.720428	酒家	-0.05613438
-3.720428	酒托	-0.05613437
-3.720428	酒楼	-0.05613437
-3.720428	酷似	-0.05613438
-3.577401	采取	-0.05613438
-3.720428	采取相应	-0.05613438
-3.720428	采访	-0.05613438
-3.577401	释放	-0.05613438
-3.421743	里	-0.1275688
-3.720428	重塑	-0.05613438
-3.421743	重大	-0.05613437
-3.577401	重庆	-0.05613438
-3.720428	重整	-0.05613437
-3.720428	重新	-0.05613438
-3.720428	重新考虑	-0.05613438
-3.421743	重点	-0.05613437
-3.577401	重要	-0.05613437
-3.720428	重要性	-0.05613438
-3.720428	重视	-0.05613438
-3.577401	量	-0.1682375
-3.720428	量身	-0.05613437
-3.421743	金	-0.05613438
-3.577401	金玉良缘	-0.1682375
-3.720428	金融	-0.05613438
-3.577401	针对	-0.05613438
-3.720428	针对性	-0.05613438
-3.720428	钱	-0.05613437
-3.577401	钻戒	-0.05613437
-3.720428	铁像	-0.05613438
-3.720428	铁汉子	-0.05613438
-3.720428	铆劲	-0.05613437
-3.720428	银河证券	-0.05613437
-3.577401	银行	-0.05613437
-3.720428	铺开	-0.05613438
-3.720428	链子	-0.05613438
-3.421743	销售	-0.05613437
-3.720428	销售市场	-0.05613438
-3.720428	销证	-0.05613438
-3.720428	销货	-0.05613438
-3.720428	锁死	-0.05613437
-3.577401	锐减	-0.1682375
-3.421743	长	-0.05613437
-3.720428	长假	-0.05613438
-3.720428	长效	-0.05613437
-3.577401	长时间	-0.05613438
-3.577401	门	-0.1682375
-3.720428	门口	-0.05613438
-3.720428	问到	-0.05613438
-3.270595	问题	-0.284458
-3.577401	闯	-0.1682375
-3.720428	间隙	-0.05613438
-3.720428	阴阳	-0.05613437
-3.720428	阻	-0.05613438
-3.720428	阻止	-0.05613437
-3.720428	阿	-0.05613437
-3.577401	附近	-0.05613438
-3.720428	陆续	-0.05613437
-3.720428	陈子	-0.05613438
-3.720428	陈小春	-0.05613438
-3.720428	陈真	-0.05613437
-3.720428	降	-0.05613438
-3.720428	降低	-0.05613438
-3.577401	降准	-0.1682375
-3.720428	降息	-0.05613437
-3.720428	限制	-0.05613438
-3.720428	限度	-0.05613438
-3.720428	限购	-0.05613438
-3.720428	院	-0.05613437
-3.577401	除	-0.05613438
-3.720428	除了	-0.05613438
-3.720428	除带	-0.05613438
-3.720428	陪	-0.05613438
-3.720428	随后	-0.05613438
-3.720428	随着	-0.05613437
-3.720428	障碍	-0.05613438
-3.720428	隼	-0.05613438
-3.720428	难	-0.05613438
-3.720428	难以	-0.05613438
-3.720428	难易	-0.05613438
-3.720428	难题	-0.05613438
-3.720428	集	-0.05613438
-3.421743	集中	-0.1275688
-3.158687	集团	-0.09757105
-3.720428	雨	-0.05613438
-3.720428	雨具	-0.05613438
-3.720428	雪崩	-0.05613438
-2.708862	零	-0.6438191
-3.720428	零零	-0.05613438
-3.720428	雷诺	-0.05613437
-3.720428	需	-0.05613438
-3.069788	需求	-0.08532316
-3.421743	需要	-0.05613438
-3.421743	青少年	-0.05613438
-3.720428	青春	-0.05613438
-3.720428	青梅竹马	-0.05613437
-3.720428	青运会	-0.05613438
-3.720428	静安	-0.05613438
-3.577401	非	-0.05613437
-3.270595	非常	-0.05613438
-3.720428	靠	-0.05613437
-3.577401	面前	-0.05613438
-3.720428	面向全国	-0.05613438
-3.577401	韩国	-0.05613438
-3.720428	韩国三星电子	-0.05613438
-3.720428	音乐	-0.05613438
-3.720428	顶住	-0.05613438
-3.720428	顶层	-0.05613438
-2.877967	项目	-0.2699669
-3.720428	项链	-0.05613438
-3.720428	顺	-0.05613437
-3.720428	顾问	-0.05613438
-3.720428	预产期	-0.05613438
-3.720428	预待	-0.05613437
-3.720428	预料到	-0.05613438
-3.577401	预期	-0.05613438
-3.720428	预测	-0.05613438
-3.421743	预计	-0.05613438
-3.720428	领先	-0.05613438
-3.720428	领域	-0.05613438
-3.720428	领导小组	-0.05613438
-3.720428	频繁	-0.05613438
-3.720428	频道	-0.05613438
-3.720428	频频	-0.05613438
-3.720428	颠覆	-0.05613438
-3.720428	风向	-0.05613438
-3.577401	风月	-0.1682375
-3.720428	风波	-0.05613438
-3.069788	风险	-0.8540074
-3.720428	飞鸿	-0.05613438
-3.720428	食品	-0.05613437
-3.720428	饕餮	-0.05613437
-3.577401	饭店	-0.1682375
-3.720428	饺子	-0.05613437
-3.720428	馆	-0.05613437
-3.577401	首	-0.1682375
-3.720428	首付	-0.05613438
-3.720428	首先	-0.05613438
-3.720428	首尔	-0.05613437
-3.720428	首席	-0.05613437
-3.720428	首次	-0.05613438
-3.720428	首要	-0.05613437
-3.720428	马上	-0.05613438
-3.720428	马市	-0.05613438
-3.421743	马龙	-0.05613438
-3.720428	驴	-0.05613437
-3.270595	驾驶	-0.09038454
-3.720428	骷髅	-0.05613438
-3.069788	高	-0.05613438
-3.720428	高原	-0.05613437
-3.577401	高峰	-0.05613438
-3.577401	高峰期	-0.1682375
-3.720428	高度	-0.05613438
-3.720428	高性能	-0.05613438
-3.720428	高管	-0.05613438
-3.720428	高级	-0.05613438
-3.720428	高谈阔论	-0.05613438
-3.720428	高质量	-0.05613437
-3.720428	高超	-0.05613438
-3.577401	高速	-0.05613438
-3.720428	魂	-0.05613438
-3.577401	魔法	-0.1682375
-3.720428	鲁莽	-0.05613437
-3.720428	鳝鱼	-0.05613437
-3.720428	黄浦	-0.05613438
-3.421743	黑色	-0.05613437
-3.720428	鼓励	-0.05613438
-3.720428	龙	-0.05613437
-3.720428	龙耀	-0.05613437

\2-grams:
-0.9157216	1 号门
-0.9157216	8.5 折
-3.256007	<s> C
-3.323858	<s> E
-3.001966	<s> I
-3.503129	<s> L
-2.454271	<s> N	-0.1909937
-3.078291	<s> O
-3.057747	<s> P
-2.628384	<s> T	-0.0537379
-3.503129	<s> Z
-3.661294	<s> n
-1.492749	<s> 一	-0.8768997
-3.019672	<s> 一个
-3.591912	<s> 一九九零年
-3.001966	<s> 一些
-3.131232	<s> 一名
-3.503129	<s> 一周
-3.038454	<s> 一点
-3.256007	<s> 一种
-3.661294	<s> 一线
-3.661294	<s> 一般
-3.503129	<s> 一辆
-3.661294	<s> 丁香
-2.523643	<s> 七
-3.661294	<s> 七是
-3.404309	<s> 七车
-2.639232	<s> 万科
-3.591912	<s> 万达
-2.242855	<s> 三
-3.661294	<s> 三位
-3.661294	<s> 三叶
-2.175624	<s> 三星	-0.02208715
-3.661294	<s> 三星电子
-3.661294	<s> 三是
-3.591912	<s> 上周
-2.454271	<s> 上海
-3.661294	<s> 上海市
-2.628384	<s> 下	-0.2799984
-2.726328	<s> 不
-3.503129	<s> 不仅
-3.131232	<s> 不过
-2.796567	<s> 与
-3.503129	<s> 专家
-3.661294	<s> 世纪
-3.323858	<s> 业务
-2.586092	<s> 东京	-0.0288519
-3.661294	<s> 东北
-3.404309	<s> 东南
-3.591912	<s> 东方
-3.591912	<s> 两人
-3.109581	<s> 两名	-0.08423924
-3.661294	<s> 两家
-3.661294	<s> 两辆
-3.591912	<s> 中原
-2.322935	<s> 中国
-3.131232	<s> 中国证监会
-3.661294	<s> 中指
-3.661294	<s> 中新网
-1.895625	<s> 为
-3.078291	<s> 为了
-3.661294	<s> 为何
-3.661294	<s> 为此
-3.661294	<s> 为省
-2.482155	<s> 主人
-3.661294	<s> 主管
-3.404309	<s> 主要
-2.639232	<s> 丽江	-0.05352089
-3.591912	<s> 之前
-2.765114	<s> 乒乓球
-2.274447	<s> 九	-0.06461307
-3.661294	<s> 九井
-3.661294	<s> 九零
-1.994914	<s> 也
-3.503129	<s> 买
-3.503129	<s> 事发
-3.404309	<s> 事故
-2.842534	<s> 二
-3.591912	<s> 二手房
-3.661294	<s> 二是
-3.661294	<s> 二零零三年
-3.661294	<s> 二零零六年
-3.661294	<s> 于是
-2.952276	<s> 五
-3.661294	<s> 五是
-3.661294	<s> 亚洲
-3.661294	<s> 交易额
-2.907932	<s> 人口
-3.503129	<s> 什么
-3.131232	<s> 今后
-3.661294	<s> 今天下午
-3.503129	<s> 今年
-2.560025	<s> 从
-3.661294	<s> 从来
-3.661294	<s> 从软
-2.246122	<s> 他	-0.02569856
-3.14566	<s> 他们
-3.661294	<s> 仙桃市
-2.560025	<s> 以
-3.661294	<s> 以供
-3.109581	<s> 以及
-3.591912	<s> 以往
-3.591912	<s> 优衣库
-2.500978	<s> 会
-3.323858	<s> 会徽
-3.661294	<s> 传达
-3.591912	<s> 伤者
-3.591912	<s> 伴随
-1.910274	<s> 但	-0.04998367
-2.370882	<s> 但是
-3.591912	<s> 低价
-3.503129	<s> 住房
-2.880625	<s> 你
-3.591912	<s> 依旧
-3.404309	<s> 信息
-3.661294	<s> 信托
-3.591912	<s> 信贷政策
-2.646442	<s> 候若洪	-0.05312223
-3.661294	<s> 做好
-3.661294	<s> 偶尔
-3.661294	<s> 充分
-3.661294	<s> 充分发挥
-3.591912	<s> 先后
-3.109581	<s> 光韵	-0.08423926
-2.984668	<s> 八
-3.591912	<s> 八月
-3.038454	<s> 公募	-0.08423923
-3.661294	<s> 公安机关
-3.591912	<s> 公积金
-2.398513	<s> 六	-0.08423924
-3.661294	<s> 六十四岁
-3.591912	<s> 共
-3.256007	<s> 关注
-3.661294	<s> 关键
-2.434879	<s> 其
-2.271405	<s> 其中
-3.323858	<s> 其他
-3.131232	<s> 其余
-3.503129	<s> 再度
-3.131232	<s> 再次
-3.591912	<s> 几个
-3.591912	<s> 几乎
-3.661294	<s> 凤凰网
-3.661294	<s> 出库
-3.197339	<s> 出现
-3.591912	<s> 则
-3.661294	<s> 创
-3.661294	<s> 创造
-3.503129	<s> 别
-3.661294	<s> 加上
-3.109581	<s> 加大	-0.08423926
-1.811544	<s> 北京	-0.1315498
-3.661294	<s> 北湖
-3.503129	<s> 十年
-3.661294	<s> 卓阳
-3.661294	<s> 南桥
-3.661294	<s> 南沙
-3.591912	<s> 印度
-3.661294	<s> 即
-3.591912	<s> 即使
-3.323858	<s> 却
-3.661294	<s> 却是
-3.661294	<s> 原则性
-3.661294	<s> 原味
-3.661294	<s> 去年
-3.661294	<s> 县间
-3.197339	<s> 又
-3.503129	<s> 及时
-3.591912	<s> 受伤
-3.591912	<s> 受到
-3.661294	<s> 受助者
-3.661294	<s> 受限于
-2.482155	<s> 变温	-0.4049371
-3.038454	<s> 只
-3.591912	<s> 只有
-3.661294	<s> 只要
-2.425498	<s> 可	-0.4049371
-3.323858	<s> 可能
-3.661294	<s> 司机
-3.661294	<s> 各大
-3.661294	<s> 合理
-2.646442	<s> 同时
-2.796567	<s> 后
-3.661294	<s> 后者
-2.968308	<s> 向	-0.08423924
-3.661294	<s> 呃
-2.628384	<s> 周杰伦
-2.433777	<s> 和
-3.661294	<s> 哈根达斯
-3.661294	<s> 售后
-2.279251	<s> 嗯
-2.469055	<s> 四
-3.661294	<s> 四十六岁
-3.661294	<s> 四川
-3.001966	<s> 因为
-3.131232	<s> 因此
-3.131232	<s> 国务院
-2.613824	<s> 国家	-0.05385637
-3.591912	<s> 国球
-3.661294	<s> 国际乒联
-3.591912	<s> 图
-3.131232	<s> 土地	-0.08423924
-1.754374	<s> 在
-3.591912	<s> 基于
-3.503129	<s> 基本
-2.893948	<s> 基金
-3.661294	<s> 外滩
-3.661294	<s> 外面
-3.661294	<s> 多以
-3.661294	<s> 多位
-3.661294	<s> 大力
-3.404309	<s> 大型
-3.661294	<s> 大大降低
-3.131232	<s> 大家
-3.661294	<s> 大成
-3.661294	<s> 大约
-3.661294	<s> 太阳
-3.661294	<s> 奔驰
-3.591912	<s> 奥恰
-3.256007	<s> 女子
-3.109581	<s> 她
-3.661294	<s> 如今
-3.503129	<s> 如果
-3.591912	<s> 娱乐
-3.661294	<s> 孔乙己
-3.661294	<s> 孔家
-3.503129	<s> 存量
-3.323858	<s> 孩子
-3.038454	<s> 它
-3.661294	<s> 它们
-3.503129	<s> 实行
-3.661294	<s> 富林美
-2.230834	<s> 对
-3.078291	<s> 对于
-3.661294	<s> 对公
-2.043948	<s> 将
-2.628384	<s> 小S
-3.661294	<s> 尚街
-2.490074	<s> 就
-3.099483	<s> 就是
-3.661294	<s> 尽快
-3.661294	<s> 屡
-3.661294	<s> 崇明岛
-3.591912	<s> 工作日
-3.109581	<s> 左小蕾
-3.661294	<s> 巩固
-3.661294	<s> 差别化
-2.952276	<s> 已
-3.591912	<s> 已有
-2.968308	<s> 已经	-0.08423924
-2.726328	<s> 市场
-3.131232	<s> 市政府
-3.591912	<s> 市民
-3.323858	<s> 希望
-3.661294	<s> 带动
-3.661294	<s> 年内
-2.373107	<s> 并
-3.661294	<s> 并且
-3.591912	<s> 并非
-2.880625	<s> 幺
-3.503129	<s> 广州
-3.503129	<s> 建立
-3.256007	<s> 开展
-3.661294	<s> 开展业务
-3.131232	<s> 引来
-3.591912	<s> 张伟
-3.661294	<s> 张女士
-3.591912	<s> 强行
-3.503129	<s> 强调
-3.661294	<s> 当三
-3.661294	<s> 当中
-3.591912	<s> 当地
-3.109581	<s> 当时
-3.131232	<s> 影片
-2.968308	<s> 很
-3.078291	<s> 很多
-3.591912	<s> 很快
-3.661294	<s> 微博
-3.661294	<s> 思蜀
-3.661294	<s> 恒大
-3.661294	<s> 您
-1.363942	<s> 想	-1.44633
-3.591912	<s> 成都
-3.197339	<s> 我
-2.042156	<s> 我们
-3.661294	<s> 截至
-3.661294	<s> 戴
-2.984668	<s> 房地产
-3.131232	<s> 所以
-3.661294	<s> 所幸
-3.404309	<s> 所有
-3.591912	<s> 所谓
-3.661294	<s> 手臂
-1.353646	<s> 打开	-0.01321539
-3.131232	<s> 打造
-3.661294	<s> 扬言
-2.907932	<s> 把
-3.661294	<s> 抑制
-3.404309	<s> 投资
-3.661294	<s> 拍
-3.591912	<s> 持刀
-3.591912	<s> 按照
-3.591912	<s> 接近
-3.404309	<s> 推动
-3.503129	<s> 提高
-2.27614	<s> 搜狐	-0.5810283
-3.661294	<s> 攒够
-3.256007	<s> 支撑
-3.256007	<s> 政策
-2.287757	<s> 新	-0.03152633
-3.661294	<s> 新一轮
-3.661294	<s> 新世纪
-3.109581	<s> 新房	-0.08423925
-3.131232	<s> 新款	-0.08423923
-3.404309	<s> 新股
-2.968308	<s> 日本
-3.661294	<s> 时代
-3.591912	<s> 昆凌
-3.661294	<s> 明星
-3.661294	<s> 星巴克
-2.322434	<s> 是
-3.661294	<s> 显现出
-3.057747	<s> 更
-3.591912	<s> 更大
-3.131232	<s> 最后
-3.591912	<s> 最大
-3.591912	<s> 最终
-3.503129	<s> 最近
-2.304749	<s> 有
-3.591912	<s> 有个
-3.661294	<s> 有助于
-3.661294	<s> 朝阳区
-2.434879	<s> 未来
-3.661294	<s> 本报讯
-3.131232	<s> 本次
-2.968308	<s> 来	-0.08423924
-3.591912	<s> 来源
-3.661294	<s> 杨澄宇
-3.591912	<s> 杭州
-3.661294	<s> 查明
-3.323858	<s> 根据
-3.661294	<s> 梳理
-3.591912	<s> 樊振东
-3.661294	<s> 欢迎
-3.591912	<s> 正是
-3.591912	<s> 此次
-3.591912	<s> 武侯祠
-3.661294	<s> 武汉
-3.661294	<s> 母女俩
-3.661294	<s> 每
-3.661294	<s> 每日
-3.503129	<s> 比利时
-3.131232	<s> 比如
-3.591912	<s> 民警
-2.381412	<s> 汽车	-0.1884838
-2.984668	<s> 没有
-3.591912	<s> 法国
-3.197339	<s> 泡沫
-3.591912	<s> 流动性
-3.661294	<s> 海宁
-3.661294	<s> 海昌
-2.646442	<s> 涉事
-3.591912	<s> 清明
-3.591912	<s> 清点
-3.661294	<s> 清障车
-3.661294	<s> 渔具
-3.661294	<s> 潍坊
-3.661294	<s> 澄清
-3.661294	<s> 火鸟
-3.661294	<s> 灵
-3.661294	<s> 灵书妙
-3.661294	<s> 灵医
-3.131232	<s> 灵山
-2.646442	<s> 灵异
-3.661294	<s> 灵显
-3.661294	<s> 灵舍
-3.131232	<s> 然而
-3.661294	<s> 物业
-3.661294	<s> 物业公司
-3.661294	<s> 特别
-3.661294	<s> 犀蒲
-3.661294	<s> 环比
-2.425498	<s> 现在
-3.591912	<s> 珠宝店
-3.661294	<s> 球迷
-3.661294	<s> 瑞福园
-3.404309	<s> 用
-3.323858	<s> 用户
-3.661294	<s> 电动车
-3.661294	<s> 疑因
-3.591912	<s> 百分之八十
-3.661294	<s> 百分之六十
-3.661294	<s> 百盛
-3.661294	<s> 皇城
-3.661294	<s> 盛源
-2.907932	<s> 目前
-3.661294	<s> 目的
-3.197339	<s> 相关
-3.131232	<s> 相当于
-3.131232	<s> 相比
-3.661294	<s> 看上去
-3.404309	<s> 看到
-3.591912	<s> 看来
-3.661294	<s> 眼下
-3.323858	<s> 砂板
-3.661294	<s> 研究者
-3.661294	<s> 硅谷
-3.661294	<s> 确保
-3.661294	<s> 科幻
-3.591912	<s> 究竟
-3.591912	<s> 第三局
-3.661294	<s> 第五
-3.197339	<s> 管理
-3.661294	<s> 米
-3.661294	<s> 精卫填海
-2.370882	<s> 精武	-0.03080312
-3.661294	<s> 精武门
-3.109581	<s> 精灵
-3.661294	<s> 精神病
-3.131232	<s> 累计	-0.08423925
-3.661294	<s> 纠结
-3.661294	<s> 纷纷
-2.322935	<s> 组委会
-3.661294	<s> 组织
-3.661294	<s> 绍兴
-3.038454	<s> 经过
-3.323858	<s> 结合
-3.661294	<s> 继二零
-3.503129	<s> 继续
-3.197339	<s> 续航
-3.661294	<s> 维持
-3.503129	<s> 网络
-3.661294	<s> 美嘉森奥
-3.404309	<s> 老
-3.661294	<s> 老洋房
-1.984935	<s> 而
-2.370882	<s> 而且
-3.661294	<s> 而云
-2.370882	<s> 而是
-3.197339	<s> 能
-3.591912	<s> 能够
-2.487164	<s> 自	-0.1901891
-3.404309	<s> 自动
-3.661294	<s> 自可
-3.661294	<s> 自贡
-3.661294	<s> 舒友
-3.038454	<s> 苹果	-0.08423925
-3.131232	<s> 范晓萱
-3.661294	<s> 茶
-3.661294	<s> 荣昌
-3.661294	<s> 营业
-3.661294	<s> 蔡康永
-2.370882	<s> 虽然
-3.661294	<s> 蜀九香
-3.661294	<s> 蜀山
-2.642257	<s> 被
-3.591912	<s> 袭击
-3.661294	<s> 西堤
-3.019672	<s> 要
-3.001966	<s> 要求
-3.661294	<s> 观众
-2.487164	<s> 观察	-0.08423923
-3.661294	<s> 解析
-3.661294	<s> 言语
-3.661294	<s> 警察
-3.503129	<s> 警方
-2.937072	<s> 计划
-3.404309	<s> 认为
-2.454271	<s> 记者
-3.661294	<s> 讲述
-2.487164	<s> 设定
-3.131232	<s> 设计师	-0.08423923
-2.367045	<s> 证监会	-0.03099863
-2.599737	<s> 该
-3.591912	<s> 说明
-3.661294	<s> 读卖新闻
-3.661294	<s> 调
-3.404309	<s> 质疑
-3.591912	<s> 购买
-3.661294	<s> 购房者
-3.591912	<s> 赔
-3.503129	<s> 超过
-3.591912	<s> 越来越
-3.661294	<s> 越高越
-3.591912	<s> 车辆
-3.661294	<s> 转向
-3.131232	<s> 过去	-0.08423924
-3.661294	<s> 近来
-2.708161	<s> 还
-3.001966	<s> 还是
-3.109581	<s> 还有
-3.131232	<s> 还要
-2.119551	<s> 这
-2.984668	<s> 这个
-3.591912	<s> 这些
-3.591912	<s> 这位
-3.661294	<s> 这家
-3.591912	<s> 这届
-3.591912	<s> 这幢
-3.661294	<s> 这座
-3.661294	<s> 这才
-2.613824	<s> 这样	-0.03973562
-3.661294	<s> 这次
-3.038454	<s> 这类	-0.08423924
-2.464302	<s> 进一步
-3.503129	<s> 进入
-3.661294	<s> 远东
-3.591912	<s> 远远
-3.591912	<s> 送
-3.661294	<s> 适当
-3.404309	<s> 透露
-3.661294	<s> 途中
-3.661294	<s> 通用汽车
-3.503129	<s> 通过
-3.661294	<s> 那
-3.404309	<s> 那么
-3.256007	<s> 部分
-2.796567	<s> 都
-3.661294	<s> 都江堰
-3.661294	<s> 采取相应
-3.109581	<s> 重庆
-3.661294	<s> 重新
-3.503129	<s> 金
-3.661294	<s> 金融
-3.591912	<s> 针对
-3.661294	<s> 铁像
-3.503129	<s> 销售
-3.591912	<s> 长时间
-3.591912	<s> 除
-3.661294	<s> 除了
-3.661294	<s> 除带
-2.646442	<s> 随着
-2.287757	<s> 零	-0.02799273
-3.661294	<s> 零零
-3.256007	<s> 需求
-3.503129	<s> 需要
-3.591912	<s> 韩国
-3.661294	<s> 韩国三星电子
-3.078291	<s> 预计
-3.661294	<s> 频繁
-3.661294	<s> 频频
-3.661294	<s> 颠覆
-3.661294	<s> 首先
-2.47457	<s> 马龙
-3.661294	<s> 龙耀
-1.861026	A H
-1.141657	A M	-0.2880292
-1.853243	A N
-1.139415	A P
-1.857117	A Y	-0.1393705
-1.863877	A 楼
-1.865742	A 淮海店
-1.382561	B D
-1.386938	B E
-1.389881	B 报道
-0.4930934	Because Of	-0.08423925
-1.687379	C H	-0.08423924
-1.667347	C P
-1.687379	C U	-0.08423924
-1.687379	C Z
-1.690891	C 十月十日
-1.690891	C 统计
-0.4930934	Call Me	-0.08423925
-2.031531	D C
-2.048428	D J	-0.08423924
-2.052603	D Q
-2.055343	D R
-2.055343	D 二级
-2.03709	D 二零一
-2.055343	D 印制
-0.8110631	D 打印	-0.09360048
-2.055343	D 打印机
-2.026042	D 未来
-2.055343	D 概念股
-1.989445	D 行业
-1.687379	E B	-0.08423924
-1.67868	E C	-0.08423924
-1.667347	E P
-1.68446	E Y
-1.689503	E 大厦
-1.689503	E 大楼
-0.8057756	F </s>
-1.205215	F 零
-1.390419	G O
-0.6671241	G P	-0.285187
-0.6634997	Go </s>
-1.382561	H A
-1.391648	H W	-0.08423925
-1.391648	H 怀
-1.67868	I C
-1.672977	I D
-1.681561	I I
-1.667347	I P
-1.687379	I T
-1.690891	I 概念车
-0.9157216	It Go	-0.08423924
-1.389881	J J
-1.388407	J Y
-1.39095	J 版	-0.08423924
-0.6634997	K </s>
-1.382561	L D
-1.386938	L E
-1.389881	L O	-0.08423924
-0.4930934	Let It	-0.08423925
-0.9157216	Loft 时尚生活
-1.058051	M </s>
-1.845741	M A
-1.866415	M K
-1.849012	M M
-0.6179188	M P
-1.85563	M S	-0.4049371
-1.866415	M 内存
-0.6634997	Maps </s>
-0.6634997	Maybe </s>
-0.9157216	Me Maybe	-0.08423924
-0.9356204	N </s>
-1.672977	N A
-1.687379	N B	-0.2799984
-1.687379	N G	-0.4049371
-1.681561	N N
-1.687379	N Z
-0.9207438	O </s>
-1.609372	O G	-0.08423924
-1.592571	O P
-1.611146	O X
-1.612305	O 十分相似
-0.9157216	Of You	-0.08423924
-0.9434002	P </s>
-0.8392955	P A	-0.3672114
-2.079338	P L
-1.361703	P M
-1.358633	P P
-1.363762	P S
-2.079338	P U
-2.028788	P 五
-2.014703	P 四
-0.4032376	Q </s>
-0.9126632	R A
-1.079111	S </s>
-0.4428302	S A	-0.4049371
-1.689782	S U	-0.4049371
-1.692108	S 定位仪
-0.7925082	T C	-0.08423924
-1.510706	T E	-0.08423924
-1.516261	T 番
-0.6634997	T恤 </s>
-1.389881	U B	-0.08423924
-1.386938	U N	-0.4049371
-1.39095	U 资源
-0.9148455	V </s>
-0.6654674	V 二
-0.9141417	W E	-0.08423924
-1.208119	X P
-1.212023	X 之间
-0.708711	Y </s>
-1.682526	Y N
-1.685211	Y Y
-1.691162	Y 方案
-1.691162	Y 虽
-0.6634997	You </s>
-1.39095	Z F
-1.384015	Z M
-1.39095	Z Q
-0.6690716	apple pay
-1.391919	apple watch
-0.6634997	baby </s>
-0.4930934	hold 不住	-0.08423923
-0.6634997	logo </s>
-0.9151301	n 一辆
-0.8057756	pay </s>
-1.215688	pay 相似
-0.8043661	watch 的
-1.098462	一 </s>
-1.518364	一 七
-2.11955	一 三	-0.2756412
-2.151378	一 九
-2.138366	一 二
-2.248648	一 二线
-1.5153	一 五	-0.0540264
-2.171659	一 八
-2.248648	一 公交
-2.144823	一 四
-2.215303	一 女子
-2.244774	一 导游
-2.244774	一 小区
-0.721236	一 男子	-0.1174902
-2.244774	一 轿车
-2.164793	一 零
-0.6634997	一下 </s>
-2.083516	一个 临界值
-1.967751	一个 为
-2.074892	一个 住宅
-2.083516	一个 叫做
-2.060826	一个 地方	-0.08423924
-2.083516	一个 地球
-2.080095	一个 垃圾箱
-2.083516	一个 堆积
-2.080095	一个 工业
-2.053961	一个 指标
-2.083516	一个 校际
-2.083516	一个 理由	-0.08423925
-2.080095	一个 类似
-2.080095	一个 重要
-2.033992	一个 项目
-0.6634997	一个月 </s>
-0.4906135	一九九零年 后	-0.08423924
-1.211043	一事 公开
-1.216154	一事 表示感谢
-0.9154882	一二年 之后
-0.9356204	一些 </s>
-1.670153	一些 人
-1.659037	一些 公司
-1.675819	一些 城市
-1.687379	一些 经济体
-1.690891	一些 藏品
-0.9157216	一件 得不偿失
-0.9157216	一份 关于
-0.9154882	一众 好友
-0.9136482	一位 女子
-0.9157216	一六底 上映
-0.9151301	一切都是 为了
-0.9151301	一千 套
-0.9157216	一千亿 授信额度
-0.9157216	一只 眼
-1.216154	一名 白衣
-1.215688	一名 重庆
-0.9058295	一向 对
-1.376793	一周 房地产
-1.391648	一周 楼事
-1.391648	一周 签约
-0.9157216	一圈 超
-0.9157216	一场 集
-1.215688	一天 挑
-1.209092	一天 时间
-0.8043661	一季度 的
-0.9111897	一定 要
-1.205215	一家 汽车
-1.215688	一家 珠宝店
-0.9157216	一对 跨国
-0.6634997	一年 </s>
-0.6634997	一度 </s>
-1.211043	一张 他
-1.216154	一张 轮廓
-0.9151301	一日 召开
-0.9154882	一枪 击毙
-0.6634997	一样 </s>
-0.9146356	一棍子打死 所有
-0.6634997	一概而论 </s>
-0.9048619	一步 将	-0.05422832
-0.6634997	一死一伤 </s>
-0.9157216	一段 视频
-1.613523	一点 专业
-1.59188	一点 二
-0.3643642	一点 五倍
-0.6634997	一生 </s>
-0.9154882	一男一女 两名	-0.08423925
-1.216154	一百一十 七比
-1.207149	一百一十 六
-0.9157216	一百四十四 亿美元
-0.8896677	一直 在
-0.9136482	一票 大
-0.9356204	一种 </s>
-1.690891	一种 名为
-1.67868	一种 方式
-1.667347	一种 更
-1.690891	一种 清洁
-1.681561	一种 转移
-0.9151301	一米 长
-0.9157216	一类 功能
-0.9131554	一线 城市
-0.8057756	一致 </s>
-1.016467	一致 的
-0.6634997	一致性 </s>
-0.9151301	一般 不会
-0.9151301	一般而言 开发商
-1.216154	一起 帮
-1.216154	一起 血案
-0.8043661	一身 的
-0.9146356	一车 硬币
-1.391327	一辆 更好
-0.6687872	一辆 黑色	-0.08423924
-0.4575347	一辈子 的	-0.08423924
-0.9157216	一首 歌曲
-0.9157216	丁香 夏朵
-0.8122572	七 </s>
-1.72161	七 一
-1.723946	七 七
-0.8284951	七 三	-0.01685039
-1.040831	七 九	-0.1111872
-1.716974	七 二
-1.20514	七 五	-0.05335348
-1.205495	七 八
-1.204077	七 四	-0.08423925
-1.726296	七 幺
-1.20514	七 零	-0.0517713
-0.9154882	七十万 公款
-0.9131554	七归 三星
-0.9146356	七是 明确
-0.9154882	七月 二十八日
-0.9154882	七比 一百一十
-0.7939488	七车 连	-0.08423925
-0.7939488	七车 追尾
-0.9157216	万余 平米
-0.8057756	万余元 </s>
-1.215688	万余元 公款
-0.9151301	万斤 水泥
-1.51599	万科 保利
-1.420371	万科 在
-1.51599	万科 得出结论
-1.481487	万科 等
-1.215688	万达 净利润
-1.216154	万达 就要
-1.51599	丈夫 刀下
-1.420371	丈夫 在
-1.51599	丈夫 燃香
-1.51599	丈夫 砍伤
-1.03294	三 </s>
-1.071314	三 D	-0.3450692
-1.959814	三 一
-1.163869	三 七	-0.1880364
-1.161854	三 三
-1.28135	三 九	-0.02304005
-1.162524	三 二	-0.04266077
-1.16342	三 五	-0.02055188
-1.163644	三 八	-0.08931368
-1.163869	三 六	-0.02561857
-1.281056	三 四	-0.01816216
-1.965461	三 幺
-2.692401	三 标准版
-2.692401	三 炷
-1.070408	三 零	-0.08262873
-1.515062	三个 垃圾箱
-1.513639	三个 女儿
-1.515062	三个 工作日
-1.50973	三个 方面
-0.9157216	三井 不动产
-0.9111897	三位 好
-0.6634997	三分之一 </s>
-0.9111897	三分之二 要
-0.9157216	三十 一度
-0.6634997	三十二度 </s>
-0.9136482	三十五岁 之间
-0.9157216	三十四 名
-1.210067	三十年 中国	-0.08423924
-1.212023	三十年 来	-0.08423923
-0.6634997	三十度 </s>
-0.9151301	三十日 消息
-0.9151301	三千 套
-0.9157216	三叶 眼镜
-0.9154882	三号 门
-0.9146356	三天 前
-1.216154	三年 十月
-1.206181	三年 这个
-0.6634997	三成 </s>
-0.9157216	三明 举行
-1.062058	三星 </s>
-2.024017	三星 公布
-2.024017	三星 办事处
-1.998128	三星 又	-0.08423924
-0.7635316	三星 在	-0.05426533
-2.012891	三星 所有
-1.106738	三星 的
-2.024017	三星 表将	-0.08423925
-1.998128	三星 计划
-2.012891	三星 认为
-0.9136482	三星公司 推出
-0.9131554	三星电子 计划
-0.9157216	三是 贯彻
-1.216154	三月 三十日
-1.211043	三月 三星
-0.9151301	三月份 将会
-0.9154882	三栋 楼
-0.9157216	三次 溺水
-0.9157216	三点 三零
-1.391648	三百 七十万
-1.391648	三百 亿
-1.391648	三百 房贷
-0.9146356	三百多斤 硬币
-0.9146356	三百斤 硬币
-0.9154882	三维 科技
-1.687379	三里屯 事发
-1.689503	三里屯 优衣库
-1.62986	三里屯 将
-1.670153	三里屯 男子
-1.689503	三里屯 砍	-0.08423924
-1.690891	三里屯 酒吧街
-0.9131554	三零 新政
-0.9972923	上 </s>
-2.04682	上 一个
-1.99186	上 三
-2.107683	上 上周
-2.015433	上 不
-2.102297	上 不仅
-1.846901	上 了
-2.107683	上 健身房
-1.394603	上 内环
-2.066803	上 发生
-2.087749	上 实现
-2.111225	上 搜索
-2.111225	上 改变
-2.107683	上 来说
-2.107683	上 还有
-0.9157216	上一年 利息支出
-0.9151301	上去 处理
-1.214973	上周 上涨
-1.214973	上周 重点
-0.9154882	上坎镇 派出所
-0.4575347	上市 的
-0.6634997	上映 </s>
-0.6634997	上来 </s>
-0.9549627	上海 </s>
-1.814643	上海 人家
-1.812798	上海 光韵
-1.790981	上海 发布
-1.812798	上海 嘉定
-1.814643	上海 孙中山
-1.798481	上海 开始
-1.814643	上海 静安
-0.9154882	上海市 第一
-1.325511	上涨 了
-1.391648	上涨 或者
-1.118781	上涨 的
-0.9157216	上空 现超美
-0.9151301	上述 考虑
-0.5296524	下 </s>
-1.391919	下 一步	-0.2799984
-0.9157216	下一代 舰航
-0.6634997	下半年 </s>
-0.9146356	下周 三个
-0.6634997	下滑 </s>
-0.6634997	下课 </s>
-0.8057756	下调 </s>
-1.198512	下调 为
-0.8043661	下起 的
-0.6100182	下跌 </s>
-1.507263	下跌 泡沫
-1.514176	下跌 而
-0.4032376	下降 </s>
-2.118981	不 使用
-2.095872	不 公开
-2.136701	不 到位
-2.081122	不 去
-2.136701	不 吉利
-2.118981	不 增加
-2.136701	不 太
-2.103439	不 存在
-2.126966	不 完全
-2.126966	不 支持
-2.136701	不 方便
-2.136701	不 满意
-2.136701	不 满足
-2.136701	不 相信
-2.118981	不 那么
-2.126966	不 长
-2.103439	不 高
-1.373209	不仅 二
-0.6617042	不仅 是	-0.08423924
-1.382561	不会 发生
-1.388407	不会 执行
-1.39095	不会 配备
-0.8043661	不住 的	-0.08423924
-0.4930934	不再 联系	-0.08423924
-0.9157216	不到 五千元
-0.9067991	不动产 等
-0.9126632	不及 现在
-0.9136482	不可 及
-0.4032376	不同 </s>
-0.9131554	不在意 续航
-0.6634997	不够 </s>
-0.6634997	不好 </s>
-1.389881	不少 专家
-1.391648	不少 没带
-1.391648	不少 自驾车
-0.6634997	不幸身亡 </s>
-1.213987	不得不 决定
-1.216154	不得不 重新考虑
-0.9151301	不必 在意
-1.384015	不断 发展
-1.361315	不断 有
-1.118781	不断 的
-0.9131554	不断创新 发展
-0.9141417	不是 因为
-0.9157216	不满 道
-0.9053454	不用 有
-1.39095	不能 保证
-1.39095	不能 恢复
-1.39095	不能 按照
-1.214973	不过 对于
-1.216154	不过 由于
-0.9157216	不远处 一直
-2.20137	与 中原
-2.205795	与 人们
-2.15092	与 人口	-0.08423924
-2.20137	与 保安
-2.16789	与 关注
-2.194659	与 国际奥委会
-1.467674	与 基金	-0.08423924
-2.205795	与 大S
-2.20137	与 好友
-2.205795	与 德国
-2.20137	与 托管人
-2.111186	与 新
-2.194659	与 比利时
-2.111186	与 汽车
-2.185551	与 游客
-2.20137	与 督促
-2.159322	与 计划
-2.205795	与 趣味
-2.20137	与 道路
-0.9157216	与其 下一代
-0.8057756	丑闻 </s>
-1.216154	丑闻 何时
-0.9154882	专业 精神
-0.9154882	专业人士 持股	-0.08423924
-1.373938	专家 就
-1.388407	专家 指出
-1.388407	专家 认为
-0.9157216	专心 在家
-1.194728	专车 将
-1.214973	专车 改革	-0.08423925
-1.51599	世界 主题曲
-1.515062	世界 只有
-1.51599	世界 臭名远扬
-1.515062	世界 西门
-0.6634997	世界冠军 </s>
-0.9157216	世界杯 单打
-0.9151301	世纪 公园
-0.9157216	世锦赛 主办方
-1.213987	业主 们
-1.216154	业主 签名
-0.9157216	业内人士 无比
-0.7820722	业务 </s>
-1.813545	业务 整体
-1.092415	业务 方面
-1.330172	业务 的
-1.813545	业务 规范
-1.815183	业务 铺开
-0.9136482	业绩 支撑
-1.215688	东三环 华威
-1.212023	东三环 大
-0.2258747	东京 奥运	-0.01153947
-1.75501	东京 新闻
-1.759651	东京 繁华
-1.215688	东便门 桥
-1.216154	东便门 漕运
-0.9157216	东北 饺子
-0.7939488	东南 四环
-0.7938126	东南 门	-0.08423924
-0.8057756	东四环 </s>
-1.213987	东四环 七车
-1.213004	东方 I
-1.216154	东方 商厦
-0.8057756	东西 </s>
-1.186332	东西 是
-0.9157216	东部 北部
-1.216154	两 摄氏度
-1.213004	两 酒吧
-1.39095	两个 内因
-1.389881	两个 女儿
-1.347708	两个 是
-1.193787	两人 也
-1.214973	两人 让
-1.216154	两千元 医药费
-1.209092	两千元 男子
-1.215688	两名 伤者
-1.216154	两名 路人扎伤	-0.08423924
-1.36688	两块钱 与
-1.39095	两块钱 停车费
-1.39095	两块钱 赔
-0.6634997	两大类 </s>
-0.9102102	两家 公司
-0.9157216	两局 胜利
-0.6634997	两年 </s>
-0.8057756	两度 </s>
-1.215688	两度 档
-0.4926316	两张 照片
-0.9146356	两点 十分
-0.9005346	两者 是
-0.9157216	两辆 私家车
-0.6634997	严厉 </s>
-0.9146356	严格 落实
-0.9146356	严重 拥堵
-1.212023	个 大
-1.215688	个 就业机会
-0.9157216	个人 博客
-0.904379	个人信息 也
-0.4269166	中 </s>
-2.089121	中 也
-2.16468	中 公开
-2.183419	中 如此
-2.189176	中 最亮
-0.7329962	中 的
-2.189176	中 计提
-2.189176	中 迎来
-2.121093	中 还
-2.189176	中 遇到
-0.9154882	中以 十一
-0.6634997	中伤 </s>
-0.9157216	中刀 倒地
-1.214973	中原 地产
-1.213004	中原 集团
-1.986362	中国 味道
-1.936901	中国 房地产
-1.986362	中国 新增	-0.08423924
-1.988907	中国 新闻网
-1.956571	中国 现在
-1.263798	中国 目前
-1.988907	中国 经济	-0.08423923
-1.988907	中国 证
-1.268932	中国 选手
-1.988907	中国 银河证券
-1.211043	中国证监会 于
-1.214973	中国证监会 召开
-0.8043661	中小企业 的
-0.9154882	中年 以上
-0.9136482	中心 内
-0.9157216	中指 院
-0.9157216	中新网 房产频道
-0.9146356	中止 使用
-0.9141417	中法 结合
-0.9141417	中老年 群体
-1.214973	中行 三百
-1.198512	中行 等
-0.9151301	中长期 机制
-0.8043661	丰富 的
-0.9157216	临时 停车
-0.6634997	临界值 </s>
-0.4032376	临界点 </s>
-2.389494	为 一对
-2.389494	为 两年
-2.389494	为 两度	-0.05100393
-2.382602	为 乒乓
-2.389494	为 五万
-2.294553	为 人
-2.389494	为 人父
-2.318931	为 其
-2.389494	为 其装
-2.389494	为 出发点
-2.389494	为 另
-2.389494	为 四成
-2.22869	为 基金
-2.389494	为 妻子
-2.382602	为 姐妹
-2.34476	为 实现
-2.382602	为 小贩
-2.389494	为 工人
-2.389494	为 我国
-2.389494	为 挽救
-2.389494	为 新手
-2.389494	为 病孙
-2.382602	为 百分之八十
-2.372222	为 盗用
-2.382602	为 第一
-2.294553	为 给
-2.358274	为 落实
-2.389494	为 补上
-2.389494	为 超生
-2.331654	为 这
-2.389494	为 阻止
-0.6634997	为主 </s>
-1.50973	为了 实现
-1.515062	为了 推广
-1.515062	为了 解决
-1.51599	为了 重整
-0.9157216	为何 前不久
-0.6634997	为例 </s>
-0.9121715	为此 给
-0.9151301	为省 两块钱
-0.9154882	为防 宠物狗
-0.9207438	主人 </s>
-1.612305	主人 为防
-1.609372	主人 抱
-1.612305	主人 硬塞
-1.609372	主人 遭
-0.8057756	主力 </s>
-1.216154	主力 之一
-0.9157216	主办方 独家
-0.8043661	主持 的
-0.9131554	主流 城市
-0.9157216	主管 阻
-1.611146	主要 分为
-1.611146	主要 动力	-0.2799984
-1.611146	主要 形式
-1.541541	主要 是
-1.609372	主要 集中
-0.6634997	主路 </s>
-0.6634997	主题 </s>
-0.6634997	主题曲 </s>
-1.375363	丽江 一
-1.39095	丽江 两
-1.391648	丽江 古城
-0.9157216	丽江市 旅发委
-0.9157216	举 发福
-1.204251	举办 乒乓球
-1.214973	举办 成功
-0.8043661	举行 的
-1.216154	乃至 一年
-1.216154	乃至 器官
-0.6634997	久 </s>
-0.6634997	之一 </s>
-0.9146356	之中 透露
-1.215688	之前 刚刚
-1.207149	之前 要
-0.8057756	之后 </s>
-1.214973	之后 再度
-0.4032376	之外 </s>
-0.6634997	之日起 </s>
-0.9937323	之间 </s>
-1.688447	之间 V
-0.8623207	之间 的
-0.9698141	之间 相互
-0.6634997	乐园 </s>
-1.213004	乒乓 所
-1.216154	乒乓 注入
-1.39318	乒乓球 传统	-0.08423925
-1.394757	乒乓球 博物馆
-1.842263	乒乓球 在
-2.108788	乒乓球 大篷车
-1.394757	乒乓球 文化
-2.108788	乒乓球 星
-2.084006	乒乓球 比赛
-1.40697	乒乓球 的
-2.112026	乒乓球 缺少
-1.391863	乒乓球 运动
-2.112026	乒乓球 造星
-2.112026	乒乓球 馆
-0.8043661	乒乓球拍 的
-0.9157216	乘势 抢攻
-0.8948309	乘坐 和
-0.9157216	乘客 送医
-0.7520169	九 </s>
-1.169985	九 七	-0.1222979
-1.167928	九 三	-0.02384337
-1.050464	九 九	-0.2156355
-1.168613	九 二	-0.0370995
-1.333432	九 五
-1.333766	九 八
-1.051161	九 六	-0.02010021
-1.168841	九 四	-0.09566659
-1.862438	九 小时	-0.08423924
-2.540693	九 幺
-1.169527	九 零
-0.9157216	九井 日本料理
-0.8057756	九月 </s>
-1.216154	九月 率先
-0.9157216	九比二 领先
-0.9072848	九零 后
-2.287055	也 不
-2.418472	也 不会
-2.427099	也 代表
-2.314044	也 会
-2.427099	也 伴随
-2.395481	也 制造
-2.363127	也 可
-2.030962	也 在
-2.406824	也 宣布
-2.432809	也 容易
-2.352857	也 就是
-2.432809	也 应从
-1.711025	也 开始
-2.384426	也 很
-2.432809	也 接
-0.7338987	也 是
-2.432809	也 显得
-1.181375	也 有	-0.05422844
-2.432809	也 查实
-2.406824	也 没
-2.373646	也 由
-2.418472	也 盗用
-2.432809	也 相应
-2.373646	也 能
-2.406824	也 说
-0.6634997	书城 </s>
-1.390419	买 apple
-0.6689594	买 钻戒
-1.199463	买家 都
-1.216154	买家 陆续
-1.20233	买房 不
-1.215688	买房 国企
-0.6059927	了 </s>
-2.558352	了 S
-2.616442	了 一件
-2.607373	了 一张
-2.607373	了 上市
-2.607373	了 下调
-2.368399	了 与
-2.607373	了 两千元
-2.5938	了 买
-2.558352	了 二零一
-2.510079	了 他们
-2.616442	了 使用费
-2.607373	了 公积金
-2.525581	了 其
-2.616442	了 刚才
-2.616442	了 十二月份
-2.616442	了 困扰
-1.373453	了 基金	-0.04655035
-2.616442	了 外国人
-1.840481	了 对
-2.5938	了 小
-2.5938	了 很多
-2.616442	了 戈齐
-2.453072	了 我们
-2.541658	了 日本
-2.5938	了 明显
-2.607373	了 暂行办法
-2.575715	了 此前
-2.616442	了 涨价
-2.616442	了 照后
-2.607373	了 现金
-2.525581	了 由
-2.616442	了 突出贡献
-2.575715	了 经过
-2.616442	了 舆论
-2.510079	了 设计
-2.616442	了 谁	-0.08423924
-2.616442	了 贡献
-2.575715	了 那么
-2.607373	了 量
-2.616442	了 阿
-0.9157216	了解 双方
-1.390419	予以 完善
-0.6685492	予以 进一步
-0.6634997	争夺 </s>
-0.4032376	事 </s>
-1.216154	事件 死者
-1.216154	事件 致一死疑
-0.6634997	事件簿 </s>
-0.9154882	事前 审批
-1.370806	事发 后
-0.6680737	事发 现场
-1.213987	事后 报告
-1.216154	事后 立马
-0.9097213	事实上 就
-0.6634997	事情 </s>
-0.8993428	事故 </s>
-1.503933	事故 发生
-1.492565	事故 并
-1.458413	事故 是
-1.213987	事项 报告
-1.211043	事项 由
-0.9858578	二 </s>
-2.575736	二 V
-2.582195	二 X
-1.852196	二 一
-1.855558	二 七
-2.582195	二 万余元
-1.174637	二 三	-0.03007771
-1.1764	二 九	-0.03820185
-1.057689	二 二	-0.1252282
-1.177107	二 五	-0.02173586
-1.340812	二 八
-1.341329	二 六
-2.582195	二 击败
-1.8472	二 四
-1.869274	二 套房	-0.08423925
-1.178525	二 幺
-1.058766	二 零	-0.02303998
-0.9157216	二三 四线
-0.9121715	二十个 项目
-0.9157216	二十九 度
-0.9121715	二十五 到
-0.9154882	二十位 球员
-0.8057756	二十八日 </s>
-1.210067	二十八日 从
-0.9157216	二十多个 激光
-0.9146356	二十年 前
-0.6634997	二店 </s>
-0.9157216	二成 三成
-1.20233	二手房 市场
-1.216154	二手房 营业税
-0.9157216	二是 明确要求
-0.9087451	二级 市场
-0.9136482	二线 楼市
-0.9126632	二郎 设计	-0.08423924
-1.611521	二零一 三年
-1.609907	二零一 五年
-1.607685	二零一 六年
-0.8904942	二零一 四年	-0.08423925
-0.9154882	二零零三年 六本木
-0.9092329	二零零六年 基金
-1.757244	于 一身
-1.753154	于 丈夫
-1.755627	于 九月
-1.746392	于 技术
-1.72035	于 汽车
-1.757244	于 近期
-1.746392	于 酒吧
-0.9157216	于二零 一六底
-0.9151301	于二零一 五年
-0.9157216	于是 太田
-0.6634997	亏空 </s>
-0.8057756	互动 </s>
-1.215688	互动 之外
-0.9924273	五 </s>
-1.811211	五 一	-0.08423924
-1.13124	五 七	-0.1409648
-1.010802	五 三	-0.05087644
-1.011713	五 九	-0.02954108
-1.011348	五 二	-0.02582176
-1.294601	五 五	-0.05237813
-0.9191131	五 八	-0.04221614
-1.295301	五 六	-0.03113714
-1.293553	五 四
-2.528879	五 这样
-1.811211	五 零	-0.05209756
-0.9151301	五万 套
-0.9097213	五万元 并
-1.39095	五倍 以上
-1.385474	五倍 安全
-1.118781	五倍 的
-0.6634997	五千元 </s>
-1.391648	五年 最晚
-1.391648	五年 缩减
-1.373938	五年 行业
-0.9151301	五日 消息
-0.9141417	五是 其他
-0.9136482	五点 多
-0.9154882	亚洲 天王
-0.6634997	亡妻 </s>
-0.8057756	交易 </s>
-1.216154	交易 达成协议
-0.9151301	交易额 预计
-0.8043661	交汇 的
-0.8043661	交流 的
-1.391648	交通 指数
-1.39095	交通 比
-1.388407	交通 问题
-0.9097213	交通委 并
-0.9157216	亦 趋步
-0.9136482	产业 安全
-0.6665071	产品 </s>
-1.612576	产品 可大可小
-1.505488	产品 在
-1.246725	产品 的
-0.9157216	产能 用于
-0.9136482	享受 这
-1.216154	京报 快讯
-1.216154	京报 见习
-0.9136482	亭 内
-0.9154882	亲子 时光
-0.8043661	亲爱 的
-0.9943095	人 </s>
-2.054408	人 不满
-1.953628	人 与
-2.054408	人 事件
-2.051311	人 依旧
-2.040166	人 保障
-2.040166	人 办法
-2.021424	人 可以
-1.273225	人 在
-2.054408	人 带来
-2.033828	人 所
-2.054408	人 揭晓
-1.953628	人 都
-0.8043661	人们 的
-0.9157216	人会 预料到
-1.863504	人口 净
-1.145515	人口 净流入	-0.08423923
-1.865473	人口 基本上
-1.863504	人口 尤其
-1.865473	人口 急剧	-0.08423923
-1.865473	人口 曲线	-0.08423924
-1.863504	人口 红利	-0.08423925
-1.865473	人口 结构
-0.9154882	人口基数 锐减
-0.8043661	人口数量 的
-1.391648	人员 代行
-1.391648	人员 带
-1.382561	人员 把
-0.4032376	人员伤亡 </s>
-1.216154	人士 致电
-1.213987	人士 透露
-0.9157216	人家 黄浦
-0.9157216	人才 席卷
-0.9157216	人据 了解
-1.216154	人数 新低
-1.214973	人数 明显
-0.9157216	人民网 国际
-0.9053454	人气 有
-0.8043661	人父 的
-0.8043661	人群 的
-0.9154882	亿 授信
-0.6634997	亿日元 </s>
-0.9151301	亿美元 建设
-1.51599	什么 增量
-1.458413	什么 是
-1.51599	什么 神奇
-1.483314	什么 都
-0.9053454	仅 有
-1.213004	今后 可能
-1.215688	今后 除
-0.6634997	今天上午 </s>
-0.9157216	今天下午 两点
-1.39095	今年 三月
-1.391648	今年 下半年
-1.385474	今年 开始
-0.9111897	今年初 时
-0.8043661	今生 的	-0.08423924
-1.474256	仍 将
-1.51599	仍 拥有
-1.476053	仍 有
-1.513639	仍 未能
-0.9058295	仍会 对
-1.89976	从 三个
-1.89501	从 上海
-1.91037	从 丽江市
-1.881065	从 人口
-1.904562	从 今年
-1.908071	从 外形
-1.89976	从 居民
-1.890312	从 政策
-1.91037	从 本质
-1.89501	从 集团
-0.9154882	从未见过 任何
-0.9106997	从来 没有
-0.9157216	从软 实力
-0.9752068	他 </s>
-1.953526	他 以
-1.985621	他 喜欢
-1.750111	他 在
-1.964473	他 地
-1.883768	他 对
-1.975704	他 并未
-1.339527	他 的
-1.975704	他 看到
-1.988371	他 笑
-1.985621	他 说明
-1.988371	他 身穿
-1.213004	他人 照片
-1.016467	他人 的
-1.861026	他们 不能
-1.13056	他们 对	-0.08423924
-1.849403	他们 已经
-1.756798	他们 是
-1.827051	他们 没有
-0.9853954	他们 的
-1.845597	他们 能
-0.9157216	付 房租
-0.9157216	仙桃市 龙
-0.9157216	代行 职务
-1.016467	代表 的
-1.210067	代表 组委会
-1.908071	以 一百一十
-1.904562	以 修改
-1.908071	以 十一
-1.850168	以 基金
-1.91037	以 对冲
-1.908071	以 年轻
-1.908071	以 智能
-1.91037	以 避免
-1.91037	以 雷诺
-1.91037	以 高性能
-1.186332	以上 是
-1.213004	以上 群体
-0.9154882	以下 股东
-0.9146356	以二零一 六年
-0.9141417	以供 用户
-1.384015	以及 他
-1.385474	以及 现场
-1.391648	以及 税收政策
-0.9082577	以四比 二
-0.9157216	以四零 完胜
-0.6634997	以外 </s>
-1.213987	以往 学校
-1.214973	以往 成功
-0.6634997	以来 </s>
-0.6634997	以点带面 </s>
-1.681561	们 却
-1.690891	们 发声
-1.675819	们 可以
-1.635021	们 对
-1.252877	们 的
-1.687379	们 走
-0.6634997	价格 </s>
-0.9157216	价齐涨 态势	-0.08423924
-0.9154882	任 来源
-1.216154	任何 消防系统
-1.215688	任何 表态
-1.216154	任务 分给
-1.204251	任务 并
-0.8043661	任职 的
-0.4930253	份额 持有人
-0.9048619	企业 将
-0.6634997	优势 </s>
-0.9154882	优惠 程度
-0.4930934	优衣库 门口
-2.089898	会 从
-2.136968	会 公布于众
-2.127484	会 减少
-2.127484	会 出台
-2.09716	会 出现
-1.417447	会 发现	-0.03754342
-2.127484	会 在意
-2.127484	会 如此
-2.133204	会 延长
-2.119702	会 成为
-2.089898	会 把
-1.939285	会 是
-2.112057	会 根据
-2.136968	会 注重
-2.133204	会 破灭
-2.005123	会 被
-0.9157216	会上 北京市
-0.7567568	会徽 </s>
-1.03638	会徽 展示	-0.08423926
-1.728265	会徽 没有
-1.315687	会徽 的
-1.757785	会徽 选拔
-0.9157216	传感器 控制器
-1.391648	传统 乒乓球拍
-1.388407	传统 学校
-1.118781	传统 的
-0.8043661	传言 的
-0.6634997	传输数据 </s>
-0.9141417	传达 砂板
-0.6634997	伤 </s>
-0.9151301	伤人 致
-1.365482	伤者 为
-1.364089	伤者 被
-1.391648	伤者 随后
-1.216154	伪造 四百
-1.016467	伪造 的
-1.213987	伴随 它
-1.211043	伴随 着
-1.20233	似乎 不
-1.193787	似乎 也
-1.985621	但 不少
-1.985621	但 两人
-1.870173	但 也
-1.958965	但 他
-1.953526	但 他们	-0.05224883
-1.98143	但 十年
-1.750111	但 在
-1.985621	但 已有
-1.985621	但 整体
-1.975704	但 直接
-1.988371	但 绝大多数
-1.988371	但 迄今
-1.612305	但是 仍会
-1.597305	但是 他们
-1.495882	但是 在
-1.609372	但是 相对
-1.587888	但是 这个
-1.385474	位于 东京
-1.391648	位于 番禺
-1.391648	位于 首尔
-0.4032376	位置 </s>
-0.4930253	低价 兼职
-1.216154	低收入 人群
-1.213004	低收入 群体
-1.215688	低迷 之后
-1.210067	低迷 情况
-1.216154	住 建部
-1.212023	住 需求	-0.2799984
-1.386938	住宅 楼盘
-1.373938	住宅 行业
-1.391648	住宅 销售市场
-1.39095	住房 信贷政策
-1.391648	住房 用地
-1.391648	住房 限购
-1.815183	佐野 声称	-0.08423923
-1.807604	佐野 应该
-1.815183	佐野 本人
-0.951206	佐野 的
-1.094527	佐野 研	-0.08423925
-1.787535	佐野 进行
-0.8057756	体制改革 </s>
-1.216154	体制改革 启动
-0.9151301	体系 建设
-0.9157216	体育 领域
-0.8057756	体验 </s>
-1.215688	体验 性能
-0.9157216	何时 终结
